,0,1,2,3,4,5,6,7,8,9,10,11,12,13,14,15,16,17,18,19,20,21,22,23,24,25,26,27,28,29,30,31,32,33,34,35,36,37,38,39,40,41,42,43,44,45,46,47,48,49,50,51,52,53,54,55,56,57,58,59,60,61,62,63,64,65,66,67,68,69,70,71,72,73,74,75,76,77,78,79,80,81,82,83,84,85,86,87,88,89,90,91,92,93,94,95,96,97,98,99
DISTRICT,-0.1226295,-0.00942432,0.46922687,0.35933766,-0.13613792,-0.5173468,0.36102885,0.24611935,0.008151088,-0.4159775,0.4542213,-0.2809416,-0.4966946,0.06534343,-0.10718963,0.35045582,0.21256994,0.29283726,-0.018425178,-0.2533468,0.013200238,0.023131007,0.5403449,0.109026015,-0.14577816,0.14224559,0.122791864,0.2174948,-0.13303064,-0.017805817,-0.08759043,0.04489876,0.17693044,-0.19933616,-0.030504981,0.27319193,0.5845987,-0.18697034,-0.30502734,0.18625009,0.08004243,-0.1937009,-0.3077472,-0.0073161065,0.39067495,0.050717287,-0.11949569,-0.34710187,0.42520005,0.38829562,-0.3885568,-0.22195254,0.084382765,-0.10931392,-0.02125296,-0.093015246,-0.045730464,-0.36110827,-0.1896836,0.114735804,0.09194455,-0.21196182,0.32102212,-0.19807336,0.33801565,-0.04438454,-0.238678,-0.022117687,-0.12211621,-0.07588857,0.14696527,0.20210557,-0.010010624,0.37533823,0.21348903,-0.058960926,0.13373426,-0.36837307,-0.1469686,-0.1300533,-0.24236484,-0.17813675,0.12909135,0.26883754,-0.40824646,-0.120859094,0.07726004,0.19726002,0.09664413,0.11951863,0.30827588,0.042993717,0.16930524,-0.14785859,0.054326765,-0.06904584,0.17240323,-0.66743964,-0.044062458,0.064181276
SCHOOL,-0.30769578,0.40823853,0.08132911,0.013615917,0.5731694,-0.6184881,0.23340528,0.43100715,-0.001127691,-0.11741687,0.29028156,-0.29375952,-0.59989095,0.055241857,0.044001233,0.16930516,-0.2115551,0.3465227,0.12292544,-0.16602325,-0.16260745,-0.07103803,0.1223246,0.09109866,0.16086818,-0.26080236,0.11183412,0.37111682,0.04597398,0.12502226,0.11983987,0.120620355,-0.27160704,-0.4014368,-0.04391757,-0.022875905,0.48925045,-0.29849786,0.31747827,0.013853144,-0.17211469,-0.23426136,-0.488968,-0.20778933,0.48869157,0.13447149,0.010046383,-0.47737357,0.28352794,0.13824522,0.15387264,-0.31869164,0.01596334,0.17127958,-0.005169213,0.09588079,0.2990434,-0.1918661,-0.38231295,0.018872814,-0.036607414,0.21621639,0.19227341,-0.39163542,0.3461805,0.15128541,0.031458236,-0.47832143,-0.009938354,0.21221542,-0.3404898,0.21358125,0.1428605,0.27974665,0.06958278,0.11868067,-0.32664967,-0.14887592,-0.12030258,-0.44731304,-0.34775892,0.1092332,0.16720182,0.024941638,-0.27558696,-0.093372434,0.12598659,0.52409726,0.30865347,0.10455212,0.11861469,0.2801471,0.2310515,-0.5423351,-0.15618542,-0.020045122,0.64062274,-0.50281024,-0.1797021,-0.020526763
CENTRAL,0.3271808,0.5583584,0.022494048,0.2901209,0.67238474,-0.924337,0.099024616,0.18008988,0.0716767,0.15314192,0.5823184,-0.5316627,0.06272853,0.4053141,0.6370982,0.09445791,0.2547755,0.5993115,-0.10832078,-0.04101591,0.014248459,-0.25973198,-1.0266693,-0.59090185,0.2538014,-0.23243307,0.34388652,0.45661044,-0.19322859,-0.3200103,-0.33492202,0.43205324,-0.46212602,0.027954761,-0.51584,-0.17838286,0.1781534,-0.15470384,-0.24801305,-0.028858354,-0.6495426,0.12200512,0.061877497,-0.38363642,0.48204118,0.55925363,-0.5022096,-0.8341899,0.32891968,0.45206004,-0.197592,-0.13732286,-0.4106722,-0.3907564,-0.06488048,-0.27062303,0.2716509,-0.5434308,-0.70128644,0.4168501,0.3388377,0.028005969,0.26169413,2.0456755e-05,0.42370495,0.14695677,-0.24893859,0.0059546847,-0.032309037,0.28087062,-0.092349805,-0.09426944,0.08955716,0.26073024,-0.08248456,0.5649161,0.26194865,-0.24005395,-0.56543994,-0.16701049,-0.22389114,-0.16048029,-0.8309932,0.34269124,-0.14976914,-0.034793526,-0.5927163,0.091180705,0.7218614,0.35854512,-0.108706154,0.3702872,1.0336115,-0.18277551,0.15280424,-0.07515773,0.9042948,-0.49986815,0.2683496,0.12005234
CITY,-0.046956208,-0.012231412,0.6293672,-0.2942053,0.025437485,-0.44519585,0.11601981,0.026986161,0.5630223,-0.7646163,0.878213,0.6575278,-0.4190259,-0.14944623,0.21868882,0.35140824,0.43620703,0.1953644,-0.7193876,0.22374351,-0.5632555,-0.18098074,1.0144223,0.20238528,-1.1093923,0.41453838,-0.010661476,-0.13877872,0.31952715,0.3436798,0.027307669,-0.046885993,-0.37376335,-0.21033962,0.69432443,0.08145232,0.13966031,-0.7662466,-1.2590839,0.40839425,0.04477916,0.05791137,0.36990395,-0.46555138,0.7236161,-0.0064214603,-0.34175512,-0.93241996,0.07497218,0.21408673,0.15294658,0.28544065,-1.1606933,-0.3880617,-0.73414046,1.0085658,-0.13955118,0.7532568,0.6762156,-0.10527583,-0.24816352,0.8012779,0.47865814,0.6488472,0.27061793,-0.35370612,-0.6139828,0.3772629,0.028096704,-1.2224448,0.24865694,-0.30970603,-0.3128285,1.0528928,-0.109906845,-0.17387916,-0.33693203,-0.16142756,-0.5878329,0.3304434,-1.0121434,0.24216144,0.23247366,0.7473938,-0.64513326,0.025754083,0.8178389,-0.103767015,-0.0831456,-0.7751417,0.02442131,0.070164435,-0.38482738,0.16478138,0.11755793,0.091499865,1.1003491,-0.35929543,-1.0943276,-0.18424971
UNION,-0.20909958,0.11382962,-0.028842643,-0.4488979,0.36667415,0.39360833,0.30947092,-0.15509525,-0.21157597,0.13081618,0.21223085,0.73401284,-0.41179535,-0.33539498,0.621784,-0.13574544,-0.58195645,0.2512588,-0.43926695,-0.4071371,-0.027904864,-0.45661947,1.2922609,0.60307544,-0.03482579,-0.20741203,0.8868729,-0.0589083,-0.32956737,0.35035592,0.69501674,-0.1342182,0.020640912,-1.3647637,0.74652165,0.005180151,0.1378779,0.096346065,-0.4786507,-0.55829173,-0.2335552,-0.44701362,-0.37897024,0.5973428,1.2161269,-0.1211234,0.21142569,0.063792154,0.19293302,-0.29349932,0.036407106,0.20064001,-0.0065341294,-0.5393216,0.11652365,-0.46604842,-0.9213644,-0.4345159,-0.24268648,-0.825064,0.11843102,-0.353701,0.85001177,-0.060066774,-0.3287574,0.3704958,0.32767934,0.7622125,-0.7426802,0.04792842,-0.19147325,0.6351157,-0.026056387,1.2796595,-0.106642224,0.36402,-0.09182995,0.044124868,-0.44206768,-0.6381439,0.003457896,-0.90106595,0.1513763,-0.09423454,-0.7944052,-0.72099316,0.82342786,0.132594,-0.6581372,-0.22418919,0.6429715,0.058593534,0.31922305,-0.10235405,0.06129826,-0.4784365,0.64578414,-0.47521204,0.41712815,-0.8714264
FREE,-0.16662078,0.18123446,0.10961848,-0.9056394,-0.28995907,-0.10120536,0.30619472,-0.109783866,-0.39212787,-0.5097322,0.29032713,0.56494766,-0.36793447,-0.59574455,0.6493689,-0.15940355,-0.75055695,-0.051232897,-0.6008235,-0.33092225,-0.13690339,-0.15684263,1.1513125,0.49242443,-0.11772459,-0.29214546,0.8983308,-0.57799464,0.014750964,0.64981604,0.79917735,-0.45060045,-0.051256716,-1.3293469,0.41608182,0.3244926,0.13935578,0.008280269,-0.26569313,-0.91821426,0.06527537,-0.5131339,-0.12268821,0.15923584,0.89024895,0.06902499,0.1243282,0.32275984,0.24181698,-0.06779075,0.25389448,-0.21234602,-0.28787637,-0.17502177,0.17651466,-0.14561978,-0.19419992,-0.2597992,-0.33395073,-0.7046173,0.13356417,0.12404459,1.2110882,-0.3759052,-0.26546818,0.7850645,-0.034364574,0.5121273,-0.7908819,-0.5740459,0.14283425,0.46741903,0.2514213,1.226831,-0.13150117,0.5557746,-0.1274378,-0.28020832,-0.8945711,-0.089695245,0.6075274,-0.8322618,-0.037756685,-0.11567393,-0.34039968,-0.8269687,0.25430563,0.19903487,-0.22194056,0.1018632,0.7313279,0.78139585,-0.025580399,-0.107225694,0.3503042,-0.019945016,0.6785979,-0.55510235,0.4470141,-1.1094455
NEW,-0.07595292,-0.4378487,0.39897886,-0.317206,0.23925793,-0.2931319,-0.06884627,-0.1270513,-0.22808509,-0.5948406,0.20027825,0.34293535,-0.5467412,0.36050898,0.2579104,0.1766248,0.15851916,0.7528977,-0.26153374,-0.4304041,0.54948324,-0.48016143,1.1771749,-0.2496432,0.07353712,0.9079545,-0.27615756,-0.6434362,0.31397334,0.5072039,0.3020916,0.44830137,-0.09646175,-0.20555712,0.9211825,-0.37415776,-0.597616,-0.26505062,-1.1312736,-0.4676518,0.42493662,-0.8469102,0.42426658,-0.08560715,0.14650732,0.120037414,-0.20885508,-1.2889794,0.057722505,-0.4314698,0.5831219,-0.7518564,-0.7074727,-0.3803628,-0.17126365,-0.036356576,-0.07893554,-0.050579026,0.07971407,0.24047296,-0.42511237,0.08836937,0.43394846,0.56471723,0.1447973,0.49715126,-0.16952625,-0.06297563,0.16624376,-0.25583136,-0.33212906,-0.27980056,-0.57047874,0.92191774,0.37415722,-0.14760412,-0.007025112,-0.13889474,-0.8851492,0.5957098,-0.7681436,-0.21566722,-0.27652833,0.34840402,-0.52344626,-0.1448603,0.47206828,-0.5007598,-0.40179244,-0.27149,0.44369328,0.34306335,0.08736253,-0.09238242,-0.6784162,0.031641565,1.4788464,0.05060451,-0.6374429,0.6949076
YORK,-0.08582758,-0.48566636,0.56030434,-0.0673343,0.0543906,-0.3327892,-0.04278048,-0.26338488,-0.25552988,-0.79658157,-0.14196078,0.52064025,-0.4407519,-0.078400396,0.43046772,0.2576548,-0.05810519,0.58284146,-0.54062855,-0.22947694,0.46824926,-0.12979841,0.87015766,-0.44097757,-0.36864772,0.9768481,-0.26726493,-0.1673111,-0.018704303,0.9780198,-0.22135071,0.1771771,-0.286821,-0.817186,1.1000801,-0.5734301,-0.7449965,-0.049162544,-1.1814922,0.08930661,0.40649572,-0.6723511,0.19380558,0.2214783,0.41102862,-0.45311916,-0.25174755,-0.96187574,0.69271827,-0.36658812,0.4040824,-0.48264915,-0.108781144,-0.8306161,0.0059658866,0.51097524,-0.3884423,0.47108233,0.37008384,0.73447746,-0.21294944,0.21899655,0.19589405,0.82805294,0.21612899,0.4833202,-0.26818824,0.58430636,0.23329087,-0.50537807,-0.001684004,-0.6905541,-0.40639043,0.5975102,-0.1125794,-0.024857111,-0.06570941,-0.55658597,-0.70049506,0.109294675,-1.3893743,-0.14339042,-0.16868117,0.33293852,-0.47893012,-0.04321452,0.5310691,0.13750887,-0.12742627,-0.3964612,0.4829572,0.11653475,-0.23877081,0.14708322,-0.6897359,0.080767795,1.0081321,-0.035966687,-0.46289364,0.31982675
GEOGRAPHIC,-0.66224146,-0.038194753,0.65064234,-0.054260116,0.3134417,-0.39043218,0.038935732,-0.16660112,-0.29771036,-0.5434833,0.18205997,0.3155779,-0.27990752,-0.10879,0.7699685,0.3937951,-0.4627396,0.5018131,-0.5451916,-0.12889442,0.574022,0.013037872,1.2872685,-0.26958606,0.0151528735,1.0353014,-0.33696115,-0.6545179,0.33539686,0.5198292,0.1009708,0.08352931,0.23323783,-0.093795024,1.225488,-0.37594143,-0.5009158,0.02548794,-1.0178877,-0.2957266,-0.16194692,-0.42708516,0.13716097,0.08945382,0.23130096,-0.35243997,-0.31832755,-0.8006548,0.275145,-0.56619847,0.593885,-0.35034305,-0.61298794,-0.8926516,0.3928814,0.17928238,-0.1299193,0.27971905,0.6720044,0.37321526,-0.6138715,0.20581293,0.5617831,0.88636494,-0.042325605,0.16050828,-0.3864251,0.5302632,-0.04743146,-0.08415442,-0.40971425,-0.5459423,-0.40680352,1.0395559,-0.1905751,-0.16206647,-0.43779886,-0.88881105,-1.1010062,0.26488295,-1.2257633,-0.3223236,0.33248276,0.50217474,-0.4750262,0.19091666,0.4398582,-0.38093123,-0.45510504,-0.21595746,0.27736962,0.3354407,0.31656328,0.06755023,-0.31265017,0.36332145,1.1547486,0.27755004,-0.6266869,0.21298717
VALLEY,-0.34486747,-0.10731356,-0.12033986,0.08966385,0.07332549,-0.66154784,-0.4225363,0.47372532,-0.19798194,-0.4057177,0.31847373,-0.11820927,-0.27240393,0.51336557,0.48264572,0.89490336,0.22539482,0.358396,0.18746611,-0.029893193,0.5013911,0.63278925,0.12476145,-0.4328032,0.8018574,-0.37895972,-0.2772949,0.7111445,-0.45521414,0.1544402,1.0957056,0.7437264,0.024239784,0.08587556,-0.048894275,0.29405534,-0.12031849,0.29678026,-0.06693751,0.3537218,-0.03347275,0.2695015,-0.26326483,-0.5372404,0.20955116,0.6395699,-0.011877435,-0.40862966,0.874754,0.31508672,0.39939156,0.47373614,-0.6991753,-0.00383284,0.34646043,-0.033254884,-0.79783136,-0.13161504,0.49836212,0.14418681,-0.6987854,1.105608,0.857991,0.08289433,-0.570958,-0.15860179,-0.33529538,-0.8710343,-0.22869502,-0.21852238,0.105768226,-0.00089493266,-0.23333064,0.13379996,-0.13230902,-0.045675606,0.5290585,-0.9412793,-0.38774702,0.18054368,-0.49690354,-0.25628078,-0.5095749,0.93461734,-0.27324265,-0.65373206,-0.5159015,-0.29139057,1.0131795,0.28023586,-0.57876736,0.825518,1.0499278,-0.10703051,0.48717752,-0.4715129,0.79289484,0.28089535,0.12482439,-0.0015407797
#,0.17341138,-0.3622037,0.3832307,-0.5278576,-0.16447613,-0.5508534,-0.36298582,-0.061409216,-0.095523894,-0.7083065,0.14717367,0.5412454,-0.30561575,-0.035527434,0.5717259,0.13075686,-0.35675937,0.44488353,0.0058320654,-0.17396832,0.58048135,-0.08864303,0.8778511,-0.030368425,-0.40963098,0.86868954,-0.11112771,-0.45902234,0.44480848,0.7687496,-0.019990766,0.07269091,-0.017335488,-0.40550297,1.2545316,-0.44998598,-0.62251866,-0.22592898,-1.1942383,-0.35515013,-0.055558518,-0.51683223,-0.051622573,0.20758872,0.17003179,-0.34338656,-0.34420794,-0.7849513,0.23416118,-0.3916108,0.38951346,-0.387434,-0.8910303,-0.76095146,0.46462595,0.1600806,-0.25549752,0.10749783,0.31647608,0.19566442,-0.3536331,0.17370649,0.37168935,0.7048479,0.05777714,0.5751966,-0.5602904,0.2431151,0.00086417946,-0.23364802,-0.16228187,-0.24977647,-0.3962694,0.6573684,0.012888727,0.43605074,-0.06834607,-0.5627867,-0.7351529,0.50171846,-0.80058974,-0.1658457,-0.255622,0.6588869,-0.6214019,-0.056603163,0.14858168,0.09937155,-0.2755,-0.0765556,0.47747797,0.46707547,0.14787947,0.43447563,-0.865936,0.17596273,1.0662612,0.2235181,-0.4677218,0.0939565
EAST,0.103124574,0.26496762,0.26555568,0.09837967,0.115281135,-0.15484524,-0.4850333,0.47795102,-0.66286284,-0.7429699,0.77516836,0.37036452,-0.5395407,-0.0006491507,0.7359274,0.1589636,0.10948007,0.31860185,-0.9721742,-1.4432112,0.017897647,-0.17608064,1.4680824,-0.6221165,0.17935847,-0.26293844,0.09228167,0.90968436,-0.30123907,0.5880677,0.48710924,-0.22623245,0.05035579,-0.64520997,0.4386232,-0.11151642,0.18783157,-0.3051934,-0.7656421,-0.45554507,-0.3514415,-0.34913963,-0.56453615,0.41297913,0.26428214,-0.02519398,0.43954262,-0.18489218,0.08853233,0.22528408,0.2421083,-0.027589662,-0.20374763,0.089619786,-0.50997436,0.12896326,-0.15023927,0.26219818,-0.4490884,-0.019920228,-0.3730434,0.6666524,0.47855276,-0.31225768,-0.60575837,1.0574927,1.1131186,0.4935314,-0.47158888,-0.019805066,0.2539748,0.96676695,-0.15672868,0.75897413,0.121936634,0.25673884,0.21485917,0.0323578,-0.7210128,-0.87911886,-0.42345682,0.007962745,-0.20503731,-0.030139918,-0.30490917,-0.27166572,0.50572824,-0.7908005,0.7018035,0.2689829,0.4461255,0.48081815,0.082799695,-0.3891742,0.5659022,0.022957103,0.35270137,-0.5790811,-0.13678364,-0.026745345
NORTH,-0.5877361,0.17587467,0.2864365,-0.2984252,-0.04989882,0.34791714,-0.027882935,0.045059443,-0.07306243,-0.47345498,-0.12666658,0.14456326,-0.9013331,-0.2027647,0.22075257,-0.028950337,0.33523276,0.42761326,-0.26150134,-0.691895,0.04599571,0.42545515,0.42123502,0.27913976,0.7879025,0.55029416,-0.2349513,0.19461764,-0.21959323,0.5880432,-0.34431908,0.4197123,0.5157236,-0.22536097,0.14107248,-0.9527645,-0.45821565,0.0065072807,0.08140826,0.033603854,-0.26379725,0.3448497,-0.049569856,-0.011637016,-0.5703783,-0.88855815,0.33645612,-0.06053948,0.38559204,0.100260556,0.22483228,-0.045209844,-0.5358852,-0.09043565,0.4120435,-0.074007034,-0.29147166,0.015697753,0.33848765,1.0412879,-0.6486477,0.49148628,0.76495856,-0.02781222,-0.41596818,0.26690957,1.1111408,0.22370823,-0.16691491,-0.28335467,0.49997544,0.17244723,-0.12480448,-0.30183434,0.1171281,0.040425975,0.62915456,-0.6442154,-0.9826208,-0.568576,-0.3187488,0.18122536,0.2307319,0.7810307,-0.026036732,0.0711691,0.82491934,-0.3281294,-0.025453031,-0.013195964,0.34355998,0.42841822,0.7688684,-0.24222842,0.11351853,-0.061791815,1.0479248,0.08638578,0.53017145,0.8380265
SOUTH,-0.7037558,0.88295776,-0.30333015,-0.050432757,-0.028862653,-0.707742,-0.38434902,0.10394149,-0.4064888,-0.43968865,0.31567067,0.21337286,-0.25488612,-0.15265478,0.5477563,0.83852464,1.1792121,0.5735644,-0.49678513,-0.5464792,0.52316856,0.14238349,0.8264947,-0.15125048,0.8745403,0.49690545,-0.24090695,0.17053612,-0.15278102,0.2738015,0.15231045,0.30517048,0.73377746,-0.35189924,0.5020504,-0.17246081,0.0537679,0.30747753,-0.17910688,0.41569215,-0.2319722,-0.062318306,-0.016887931,0.2565955,-0.06657397,-0.10870202,-0.579552,-0.14992931,0.37500542,-0.09919208,-0.02959216,0.10843609,-0.9253561,0.19617781,-0.19474064,0.31928667,0.45851752,-0.17951716,-0.19384582,0.93645656,-0.17211682,0.71991605,0.36316842,0.32040167,0.63391566,0.23653477,0.67807645,0.5106618,0.57096565,-0.27634543,0.28974354,-0.46692446,-0.41988894,0.41132125,0.4392486,0.36453855,0.25851887,0.31277433,-0.23708372,-0.25711694,-0.380281,-0.021755848,0.6455909,0.43557867,-0.11208335,0.149836,0.6304661,0.046345554,0.5298433,-0.7360226,0.4123721,0.9811132,0.481281,-0.3631873,0.2571978,0.27074596,1.0259418,-0.19776265,-0.5554776,0.53009933
FALLS,-0.23550482,0.34000766,0.2603665,-0.12858537,0.4042164,-0.36725482,0.03684183,0.32268155,-0.13637534,-0.7765953,0.8093691,-0.281952,-0.54431236,-0.1978464,0.36856645,0.90141225,0.8872654,0.45600942,-0.62444335,-0.40083507,1.1806006,0.6003092,1.1623732,-0.9710593,0.44863716,0.7513087,0.13484891,-0.03738489,-0.073612876,0.27495143,-0.0135407,0.1521536,0.18378161,-0.5869683,0.55226195,-0.91597706,0.2858235,0.48329183,-0.36550093,0.41160068,0.34038764,-0.3065024,0.24765609,0.11715283,0.22676899,0.5912163,-0.4002523,-0.37811762,0.39313236,-0.22194,0.45172286,0.23491442,-0.354257,-0.7097579,0.10996746,-0.12888502,0.50989944,0.3888858,0.18589331,1.0166969,-0.87429255,0.29662278,0.21008216,0.24077547,0.13188119,0.4614118,0.34477824,-0.034147914,0.37104657,0.005385701,-0.30621523,-0.7158371,-0.121923864,0.29461688,0.023345742,-0.45631415,0.6721764,-0.3729829,-0.6393601,-0.054806225,-0.9065353,0.00864438,0.2736142,-0.16868839,-0.06592586,-0.010924072,0.53872013,-0.2306887,0.18364623,-0.23929967,0.34702167,0.5336882,1.0338802,0.11488869,0.05449337,-0.038472105,0.86431766,0.5079909,-0.34349206,0.6223266
WEST,-0.529769,0.40100652,0.20793691,0.09305491,-0.19587861,-0.0063762763,-0.27969813,0.30106065,-0.6624937,-0.4441332,0.51902866,-0.024880296,-0.5518783,0.2962771,0.34653726,0.21770398,0.5921032,0.6387428,-0.9359911,-0.7707948,-0.070644364,0.34892035,1.2581551,-0.5591931,0.73177725,0.10751067,0.6847137,0.5579842,-0.5256109,0.39249244,0.36271057,0.0076603564,0.14783828,-0.3541008,0.3356605,-0.15065521,0.6495959,-0.17879756,-0.117968835,0.32458648,-0.037995435,-0.472999,-0.6230291,0.20220007,0.32957298,0.26117343,0.15775497,-0.27884278,0.2781637,-0.2768587,0.18264107,0.17618541,-0.41180634,-0.14699847,-0.28453445,0.4436207,0.14373617,-0.1821671,-0.20361969,0.5540756,-0.36034706,0.6330284,0.38715354,-0.6140101,-0.24262956,0.22561051,0.9713203,0.40266097,0.086159736,-0.03424445,0.30559796,0.24281989,0.189483,0.39263695,0.00462405,0.24299002,0.69732386,-0.29058594,-0.8380161,-0.676926,-0.4993654,-0.16346475,0.12786357,-0.056114685,-0.31189132,-0.35471487,0.21864071,-0.5950427,0.6833517,0.090588726,0.14806573,0.7319777,0.9292414,-0.85699904,0.61827046,0.21792439,1.2451546,-0.29569557,0.19437775,-0.066958524
CSD,-0.11658371,-0.20070495,-0.0154297175,0.023651022,-0.628259,-0.39747196,-0.6684261,-0.5370032,0.016054979,-0.2342888,-0.48254868,0.33294514,-1.0814826,0.4391542,0.1775942,0.5677835,-0.22124754,0.5802655,0.1320565,-0.04470598,1.3428539,0.43386438,0.26813474,0.044364244,0.43935877,0.44345713,0.30032024,-0.3174355,-0.21409942,0.24659671,0.61081785,-0.27171057,0.59273696,-0.6937083,0.58009624,-0.56874776,-0.40645364,0.17688052,-0.26879624,-0.42162728,-0.56512123,0.12819271,-0.107787915,0.5214995,0.3074759,-0.0812653,-0.29161215,-0.17343351,1.2692655,0.24163556,-0.10583958,0.19411236,-1.0101159,-0.07076518,0.6961425,0.46741283,0.25527653,0.013386484,-0.61406064,0.29517445,-0.053753085,0.9497408,0.00034647394,-0.066166684,0.22981489,0.42390305,0.39092594,0.48172942,0.56604916,-0.026222298,0.13462794,-0.2138104,0.00013999421,-0.1587359,0.27012384,0.49990827,0.7196457,-0.14785366,0.13160539,0.101133585,-0.62280977,-0.4386595,-0.4633528,0.8135841,0.18599764,0.12719655,0.04363759,-0.33032492,0.28032508,-0.25143254,0.1370664,0.7329362,0.82516265,-0.17158169,-0.6579685,0.48440653,-0.113835834,0.43138954,-0.62225395,1.0804448
PARK,-0.2640032,0.3087878,0.3688855,-0.22468907,0.24362238,-0.332127,0.3619317,0.46142086,-0.5544835,-0.7417628,0.23633395,-0.2331711,0.10703665,0.17425503,0.55649495,-0.045532305,0.6667026,0.3711619,-0.33832073,-0.830966,0.6492476,0.08568717,0.6646746,-0.6480734,0.4613386,-0.09461681,0.031818923,0.11396145,-0.5200272,0.27583933,0.3198855,0.22249664,0.013782081,-0.7347845,0.5419118,0.11957585,-0.2406883,0.29504734,0.14674164,-0.04852214,0.013624392,-0.3081603,0.027813893,0.22066587,0.23616272,-0.08042925,-0.15762834,-0.047163587,0.40669367,0.18025105,0.4132557,0.6104364,-0.36735022,-0.3755657,0.41072926,0.1859742,0.14893734,0.17788659,-0.12597041,0.53123885,-0.7670112,0.42838517,-0.080129296,-0.18861775,-0.011991822,0.40366557,0.52755636,0.17632048,0.39887056,-0.39696938,0.3686123,-0.105375916,0.09117596,0.680451,0.42334798,0.1781292,0.9327766,-0.0032647585,-0.1253171,0.15580294,-0.55659145,0.4355544,0.35482094,0.17584339,-0.013853135,0.002980252,0.6355116,-0.45028526,0.8683461,-0.010471081,0.5401609,0.55230707,0.9917428,-0.35589373,0.66859514,0.5192061,0.49485672,-0.26480553,-0.076317504,-0.33716497
PORT,-0.19611385,0.072553776,-0.013176807,0.0111554125,0.008805969,-0.26040605,0.04910979,0.39188147,-0.7203126,-0.528976,0.046954684,0.19016662,-0.4005169,-0.011956227,0.65431154,0.3946655,0.41748357,0.6188325,-0.48042598,-0.59154844,0.71955997,-0.0008670157,1.2817352,-0.26088184,0.85231555,0.19109476,0.28713924,0.22632514,-0.32931492,0.47299317,0.7364189,-0.10095241,0.23202538,-0.9872419,0.732169,-0.20834662,0.29043052,0.5678013,0.21975523,-0.3303277,-0.21445175,-0.47864735,-0.10301124,0.50847423,-0.077093266,0.06876376,0.08937701,0.2922632,0.6035085,-0.0451219,0.064386465,-0.35413703,-0.36994934,-0.14906994,0.29861504,0.1631191,-0.0037614175,0.04947346,-0.08690187,0.41475257,-0.27344948,0.45758438,0.5246505,-0.2019015,-0.20868297,0.79339164,0.92687166,0.4992137,-0.12085146,0.13423754,0.15592496,-0.06300982,0.1251749,0.5794802,0.3166633,-0.10907493,0.21848626,0.05806432,-0.6263199,-0.7140821,-0.23312153,-0.11526602,0.32294714,0.042188693,0.07247184,-0.2983112,0.3384126,-0.16964607,0.18234153,-0.27704516,0.8933828,0.17253634,0.57538575,-0.05013413,0.24436909,0.0638014,0.7205761,-0.4695634,-0.043942478,-0.1849241
POINT,-0.18682203,-0.06407737,0.3541985,-0.11000613,-0.5271808,0.42793244,-0.035226803,-0.51076907,-0.15976517,-0.6138185,-0.12522922,0.41941774,-0.35674334,0.05635508,0.508294,0.29712263,0.4476884,0.35180232,-0.23630859,0.11137367,0.56971246,0.40374726,0.5231949,-0.4856295,0.26798034,0.1728289,0.15211877,0.09606984,-0.4078083,0.5113824,0.5969414,-0.17591694,0.441761,-0.57494473,0.19442508,-0.4161298,-0.6782191,0.15381518,-0.07914231,-0.16578886,-0.34067905,0.5393568,-0.13050923,0.5819765,-0.025373505,-0.057388417,0.38301715,-0.1340692,0.7648709,0.12540448,0.17091917,0.43595374,-1.2023762,-0.48596773,0.51231605,0.56167686,-0.15499909,0.46082935,0.17907783,-0.025272673,-0.93587536,0.5231196,0.23764841,-0.5070252,-0.33788738,0.609191,0.65908366,-0.15910326,-0.064107165,-0.29922768,0.15009253,0.15630393,0.29394037,-0.0021043424,-0.19815126,0.28941083,1.0040545,-0.16884412,-0.45935234,0.027134623,-0.73176557,-0.038040984,-0.0030403647,0.72348744,0.1807172,-0.390776,0.22932267,-0.8600195,0.42709705,-0.20759054,-0.16340894,0.40254095,0.6335769,-0.13974832,-0.19455709,0.08235357,0.30399272,0.6154939,0.03391938,0.46389788
MOUNT,-0.22538048,0.11152835,0.20136951,0.37965465,0.032422457,0.07536788,-0.08500428,0.28054225,-0.081308775,-0.4737973,0.36616075,0.01766799,-0.02910966,0.1562558,0.47240618,-0.11207202,0.010474786,0.4492805,-0.742706,-0.4948261,0.37729606,0.1780941,0.39707214,0.19476101,0.40728304,-0.040336013,0.39505863,0.0537114,-0.71570855,0.16472268,0.30571717,-0.41150475,0.09076506,-0.5113328,0.13224958,-0.11099549,0.16473934,0.5857698,0.065603256,-0.08980332,-0.011087534,-0.23162131,-0.6653845,0.50467247,-0.068885855,-0.46493563,-0.11677447,-0.21804105,0.55101496,0.37482974,0.5273431,-0.3291118,-0.30658025,-0.25610378,-0.14139137,0.30661666,0.0869827,-0.12211499,-0.50862753,-0.057829093,-0.45598182,0.62243575,0.5970389,-0.54626554,-0.5550601,0.6833751,0.38333642,0.009140473,0.26196906,-0.29443535,0.241878,0.20857066,-0.40010443,0.41264543,0.32020938,0.4959257,0.5156923,-0.01963162,-0.6421838,-0.0709426,-0.43425912,-0.07846846,0.06153138,-0.119330265,-0.44763574,0.16417891,0.20580873,-0.49576166,0.04353098,0.4891446,0.048972502,0.50646377,0.62626266,0.16349353,0.77388406,-0.0074529476,0.6806451,-0.3451743,-0.41589502,-0.16934003
LAKE,-0.10738232,0.45676458,0.62422585,0.3710532,-0.26126182,-0.08282433,-0.14720985,0.15315746,-0.08595817,-0.11560395,0.6703979,0.08466592,0.28214416,0.39584678,-0.14849488,-0.018037582,0.64609486,0.012502678,-0.3803828,0.09381373,0.11009976,-0.114079475,-0.20874888,-0.21310867,0.551432,0.34516534,-0.12485034,0.45559657,0.060350966,0.24942772,0.28562778,0.104447216,0.41897413,-0.48368004,0.111998565,-0.59063363,-0.096168354,-0.52191585,-0.14840159,-0.14668529,-0.5737579,0.28427714,-0.02251905,-0.2762661,-0.2095898,-0.10275966,-0.22066505,-0.48800138,0.12995389,0.18806054,0.4619595,0.52906525,-1.2637082,-0.12010833,-0.20583013,-0.31718358,0.0029608747,-0.13126321,-0.5996823,0.07842465,-0.4689426,1.0601135,-0.05369337,0.18936314,-0.09860028,0.1372618,0.49681467,0.078859545,-0.17254104,0.02617379,0.30765414,0.17927709,-0.04682127,-0.121440195,0.1229557,-0.021450166,0.4349808,-0.1599936,-0.30433956,0.55898243,-0.69377625,-0.20552894,0.0990415,0.48594084,-0.5859364,-0.10698824,0.18559286,-0.3965153,0.34303492,0.3561963,0.40158466,0.32918152,0.8272612,-0.30562183,0.056797106,-0.03757043,0.45609322,0.376199,-0.28570518,0.15558341
ISLIP,-0.06761863,0.19594193,0.08050956,-0.114410765,-0.43592614,-0.18819416,-0.33526415,0.12629345,0.024412127,-0.22674894,-0.082829036,0.26026434,-0.3012581,0.19517812,0.1885112,0.08434227,0.16167296,0.4511051,0.053400174,-0.051883195,0.5176485,0.35858506,0.6872245,0.14059515,0.18562128,-0.2859296,0.12194159,0.6642512,-0.55409724,0.24223727,0.7047242,-0.12089724,0.1532913,-0.85135496,0.23310861,0.07991822,0.104886584,-0.008725307,-0.14726214,0.06468824,-0.6593953,0.19979188,-0.44177902,0.015890013,0.26181355,0.15827593,0.23995729,0.27215138,0.58605367,0.2343114,0.017125681,0.23057589,-0.79304606,-0.48856905,0.26304653,0.021497507,0.19442888,0.041076884,-0.46874183,-0.3770009,-0.19729428,0.36694202,0.19512835,-0.47480512,-0.09585926,0.49948668,0.5227122,-0.1573979,-0.13824187,0.1286593,0.3239074,0.11612427,0.25355121,-0.005804563,0.06459307,0.3677692,0.6246606,-0.05040526,0.08769627,-0.14032511,-0.42783463,-0.1945642,-0.074877605,0.45667377,-0.19204132,-0.42148417,0.20575613,0.010524516,0.29445127,0.15905645,0.18493415,0.28180996,0.45635593,-0.5740877,-0.045690518,0.09184592,0.009439438,-0.027133217,-0.3375011,-0.25401032
RIVER,-0.3463683,0.05166192,0.45594046,-0.16536267,-0.34395823,-0.027662609,-0.2970678,0.2215721,-0.30166855,-0.3957658,0.2831801,0.18317805,-0.03494464,0.25237888,0.50337195,0.2873413,0.81813353,0.07739471,-0.43893716,-0.37065378,0.4862295,0.08893495,0.8257747,-0.72711825,0.3566893,0.13305265,0.23235019,0.53470975,-0.32591414,0.26278585,0.76170814,-0.05732318,-0.028399859,-0.93083227,0.19102846,-0.55076224,0.20567499,0.12616406,-0.23406708,0.14229448,-0.22260746,0.37066895,-0.035058547,-0.23976308,0.17231129,-0.06496107,-0.011299854,0.18095328,0.23616105,0.20629242,0.3162164,0.45517474,-0.81989765,-0.007102537,-0.2734514,0.3119965,0.09178483,0.3850233,-0.17964703,0.03703623,-0.6154027,0.74352765,0.14948039,-0.07117458,-0.3542905,0.49896127,0.79344904,-0.16897264,0.044372313,0.127581,0.24863994,0.3993776,-0.047324523,0.16222455,0.20583414,-0.013188893,0.8056265,-0.06763205,-0.41780356,0.030505722,-0.3239314,-0.041428514,0.19121075,0.39437315,-0.34041002,-0.29579407,-0.031689875,-0.41433197,0.27807692,0.28626654,0.3462433,0.19500089,0.6136741,-0.44700447,0.34668568,0.31413463,0.720184,-0.031128824,-0.1230558,0.060551908
OF,0.13994837,-0.43295527,0.3954472,-0.42171124,-0.72988707,-0.299772,-0.36237273,-0.022831868,-0.07323447,-0.5694794,-0.091262825,0.89179635,-0.5137149,0.25682613,0.16167589,-0.37341416,-0.12934773,0.5189377,-0.28365925,0.007820401,0.6835194,0.21781033,1.1190602,0.4275255,-0.15799223,0.47847652,-0.08025624,-0.22730389,-0.3241709,0.8600371,0.71643746,0.39871868,-0.30739588,-0.816201,1.005217,-0.67532516,-0.66400325,-0.3482774,-0.4303298,-0.5215805,-0.4876782,-0.52978164,0.11561818,-0.31201574,0.20001842,-0.081261024,0.21512154,-0.42247704,0.8127146,-0.2600292,0.64894587,-0.19123782,-0.8717562,-1.2438604,0.65926456,0.3149353,0.26651362,0.48613006,0.08314162,0.108335786,-0.1414142,0.16575028,0.06832253,0.30473953,0.043689743,0.30215776,-0.25891876,0.12970494,-0.22490636,-0.05599467,-0.5597855,-0.71916884,-0.066061154,0.29840368,-0.062408037,0.24807046,-0.07784358,-0.22241412,-0.5540297,0.41459832,-0.7168532,-0.20346254,-0.18218009,0.6534889,-0.09829899,-0.56793505,0.19694196,0.05047738,-0.11152311,-0.08188446,0.59600437,0.038222864,0.3050599,-0.085389465,-0.44037306,0.044875577,0.9961442,0.36988628,-0.527444,-0.5969777
SYRACUSE,0.47218487,-0.17780659,0.03847079,0.06900586,-0.47914332,-0.44211814,-0.36064157,0.115037955,0.0051041422,-0.036201626,0.033754434,0.5200765,-0.36818978,0.14675197,0.08143697,0.24960944,-0.28652546,0.20596857,0.0818997,-0.28346592,0.9782248,0.30308613,0.6736059,-0.19775508,0.27164096,-0.2857535,0.47545725,0.29293445,-0.5191428,0.28251666,0.63684493,-0.15097386,0.09130397,-0.8732905,0.74345714,-0.16002028,-0.09951116,0.044136874,-0.38246575,-0.45530525,-0.5845031,-0.07745947,-0.1812789,-0.00084361003,0.16853474,0.22295234,-0.15982479,0.29762095,0.6871631,0.22630596,0.019049978,0.07004961,-0.5560384,-0.4450036,0.65360767,-0.18550208,0.3086806,0.036655143,-0.69536096,-0.1459122,-0.082801685,0.268537,-0.095213994,-0.3737749,-0.20442273,0.87077796,0.21980187,-0.06045252,-0.27242464,0.21412878,-0.16279785,-0.16025808,0.08224495,-0.14752701,0.14195476,-0.011811817,0.38812393,-0.1843038,-0.07889994,-0.35657182,-0.26494238,-0.113019556,-0.5710684,0.37688643,-0.013435423,-0.23505487,0.13693611,0.10374835,0.13806832,0.31679493,0.43733382,0.1912949,0.30654135,0.15128142,-0.5848641,0.044848923,-0.37946504,0.27182126,-0.34392208,-0.19880661
HIGH,-0.32659048,0.053008195,-0.069498144,0.2242119,-0.21926704,-0.14415905,-0.26745847,0.19156677,-0.36928865,-0.24870239,0.28452998,0.09969282,-0.2284013,0.52729565,0.018310055,0.28475007,0.53136164,0.36646572,-0.30668086,-0.3677546,0.54800564,0.56970805,0.5999919,-0.53407013,0.6929913,-0.15709743,0.21221252,0.7259917,-0.606739,0.32193175,0.4320337,0.298558,0.3208928,-0.19966297,0.13562825,-0.27677578,-0.043111447,-0.20711417,-0.07055007,0.16810146,-0.43214446,0.06372659,-0.50113803,-0.14094664,0.2098048,0.1995531,-0.20290889,-0.15696758,0.7147703,0.04102368,0.16882224,0.6681775,-0.9353309,-0.3186365,0.16477926,0.3509366,0.09097171,-0.13841344,-0.42175984,0.25357974,-0.44366264,0.91437113,0.1450831,-0.40367684,-0.47034973,0.22155681,0.53205925,-0.057880223,0.092381656,0.06950346,0.37409502,-0.0096850535,0.06971142,-0.18121053,-0.0012771528,0.17114787,0.9608128,-0.3749507,-0.39601377,-0.07038831,-0.52384657,-0.00091618765,-0.2927132,0.5934465,-0.24539213,-0.31524265,0.00746958,-0.32125118,0.64765143,0.23143469,-0.15580347,0.76079005,1.1083049,-0.5121715,0.27302784,0.11948367,0.518778,0.28683147,-0.027220441,0.16139852
THE,0.1764999,-0.38643706,0.38554192,-0.3642634,-0.63626,-0.34040323,-0.3580918,-0.032550335,-0.0061862706,-0.5395661,-0.046982627,0.83252424,-0.5362858,0.24173045,0.15896587,-0.41464818,-0.15813468,0.4294782,-0.19118619,0.05483004,0.6964491,0.2321083,1.1465316,0.43284637,-0.16258325,0.4664744,-0.14689712,-0.16874835,-0.30624488,0.8928049,0.646007,0.3307029,-0.33054817,-0.86777353,0.9578661,-0.63991255,-0.67715114,-0.3017479,-0.48718926,-0.537653,-0.5227371,-0.509483,0.048527505,-0.31346375,0.1644543,-0.057491668,0.12377925,-0.41331846,0.79590803,-0.1888203,0.60174966,-0.2917747,-0.8647797,-1.2431084,0.66500294,0.2341449,0.27207303,0.44619197,0.017189924,0.096461736,-0.1871744,0.14685525,0.09222906,0.3062223,0.06083808,0.3029993,-0.27824947,0.16297719,-0.23353972,-0.11626972,-0.54000676,-0.6826079,-0.087403394,0.2743175,-0.06478169,0.19394197,-0.1585363,-0.28234535,-0.54497653,0.3794271,-0.8212291,-0.18435837,-0.14892262,0.65194786,-0.13544059,-0.5730802,0.21960807,0.10086061,-0.108220585,-0.07839009,0.6067105,0.11114029,0.2578697,-0.09146564,-0.48331824,0.10024974,0.94897264,0.38905942,-0.6238518,-0.54256934
BABYLON,0.14223777,-0.05017741,0.02245062,-0.18681021,-0.36213923,-0.29553327,-0.27992335,0.022958916,0.12770851,-0.15553486,0.11639974,0.4012495,-0.39081383,0.093570486,0.49970976,0.3078515,0.055618647,0.5704133,-0.1575905,0.22810619,0.71019506,0.06812688,0.7960496,0.049084667,0.074807115,-0.2875772,0.6231397,0.34213236,-0.5788665,0.21329409,0.8423465,-0.42674586,0.14934608,-1.0688422,0.475427,0.08860182,0.087568745,0.07755417,-0.27454913,-0.054418486,-0.5192577,0.1563788,-0.17254502,0.08216313,0.50725925,0.48238277,0.29165554,0.16621874,0.52213,0.3404631,0.025252374,0.09903391,-0.7097083,-0.49308524,0.277869,0.18567352,0.1567452,0.19129947,-0.23815507,-0.43658406,-0.2158936,0.27178195,0.12390374,-0.53276396,-0.010772962,0.5362962,0.44011796,0.14778715,-0.16328019,0.03350562,0.07272783,-0.038756676,0.38090643,0.4637169,-0.0025915448,0.37482342,0.4206275,0.04153276,-0.20530602,0.043723587,-0.45754045,-0.3865246,-0.2041159,0.49436143,0.026372792,-0.41213602,-0.015354905,-0.04549944,0.38949436,-0.08501825,0.1963963,0.100800775,0.47259077,-0.4819056,-0.10409826,0.17678283,0.05643291,-0.11794721,-0.33189595,-0.3138979
HILLS,-0.20027101,-0.4128859,0.13744114,-0.08065063,-0.030009676,-0.3631199,-0.23451817,-0.010229782,-0.18201771,-0.4309842,0.10555942,0.1555455,-0.15385763,0.65346617,0.044730972,-0.15703431,-0.1038633,0.05131938,-0.19226173,-0.37164727,0.58245444,0.52967274,0.0014884899,-0.004787623,0.44246006,0.37578994,-0.15935154,0.21574803,-0.2787901,0.34566385,-0.08164894,0.57193446,-0.09764205,-0.24766508,0.51305014,-0.5257669,-0.4334551,-0.7222382,-0.47513637,-0.25950527,-0.7046271,-0.12655608,0.1663486,-0.3964462,0.26040807,-0.103965096,-0.78259575,-0.33312714,0.6573921,-0.17786658,0.3699579,0.1533797,-0.93272305,-0.4189923,0.44401038,-0.11853191,0.08379226,0.2190831,0.07746046,0.30404532,-0.27370498,0.34862193,0.3079354,0.51142323,-0.11092173,0.106579535,-0.43381512,-0.029679995,-0.104144946,0.16815488,-0.041842442,0.096584186,-0.41901645,-0.27071443,-0.009798277,0.06710374,0.36222443,-0.5009097,-0.56691986,0.19125283,-0.80257547,-0.15662287,-0.5599449,0.70563763,-0.5060933,0.10310811,-0.016445471,-0.10003027,0.10969065,0.27478346,-0.16214025,0.8481081,0.58611983,0.31172642,0.042356037,0.11042943,0.54567426,0.15297306,-0.41187865,0.39102566
HUDSON,0.07295353,-0.2140551,0.098975584,0.055517793,0.025442068,-0.5240863,-0.055171575,0.2657467,0.08046538,-0.31080133,0.22168139,0.21187335,-0.07609376,0.08803797,-0.03275843,0.096024945,-0.07443523,0.02762943,0.015653046,-0.04589679,0.64148027,0.03359192,0.2549887,-0.074480526,0.3250691,0.29346943,0.022572778,0.124437094,-0.10780326,0.17136699,-0.1893811,0.38339093,0.22477606,-0.25982314,0.70060736,-0.5090184,-0.3480829,-0.3722802,-0.6950956,-0.052726816,-0.3262587,0.049633026,0.05362156,-0.17078428,0.20764808,-0.020415094,-0.47539535,-0.21306734,0.17677112,-0.1109421,0.18233092,-0.10334237,-0.63979137,-0.43524426,0.5564121,-0.1261049,0.090358555,0.00993294,-0.15683363,0.3668981,-0.3600896,0.25147653,0.151362,0.36555386,-0.00064142555,0.17747031,-0.36879966,0.21296857,0.11419069,-0.060238086,0.0038159832,-0.32925236,-0.20274691,0.027833829,0.19462034,-0.07342681,0.05058252,-0.24325106,-0.49886116,0.077634506,-0.7170761,0.024402607,-0.18611434,0.57905364,-0.3909477,0.018621951,0.44184336,0.2278074,0.1765859,-0.08597576,0.070563816,0.5735209,0.41310596,0.21002778,-0.41894993,0.21548226,0.4676795,0.36662444,-0.38387996,0.10338466
ISLAND,-0.31103837,-0.03620653,0.34850904,-0.15643415,-0.17708206,0.0674015,-0.21655971,-0.12359235,-0.20993409,-0.34717286,0.2680095,0.21333554,-0.19347398,0.081396796,0.3903844,0.048378278,0.2830157,0.3269886,-0.36693582,-0.28823406,0.23993486,0.23037043,1.0409188,-0.24637802,0.64118636,-0.02852574,0.38257626,0.4220115,-0.4310531,0.49581096,0.5210667,0.098739915,0.24551955,-0.9352058,0.33833817,-0.08674952,0.1331962,0.044744845,0.03238828,-0.17532818,-0.26649317,-0.20563608,-0.2313528,0.24542432,0.39435473,0.10657448,0.23787929,0.26673698,0.35544097,-0.11841118,0.2862087,0.40758902,-0.40044814,-0.2713575,-0.03118567,0.20363356,-0.29113185,0.1280178,-0.16795379,0.11006067,-0.23435324,0.5056673,0.36587986,-0.41673192,-0.14000389,0.25993112,0.6328721,0.14061996,-0.0216675,0.0068273037,0.14492263,0.31886166,0.09951392,0.5186978,0.106269605,0.2400754,0.4469456,-0.22615406,-0.3037596,-0.09139757,-0.081970796,-0.23969352,0.08446098,0.041933186,-0.3287862,-0.34341323,0.17501041,-0.48129624,0.40202892,0.17476912,0.4882665,0.34804347,0.45650354,-0.47077432,0.36972913,-0.15959609,0.48071128,-0.14317149,-0.08339087,-0.5416286
HUNTINGTON,-0.06669112,-0.07774515,0.31948474,0.010964793,0.032560658,-0.2959823,0.03722842,0.091692336,-0.003150659,-0.5266016,0.38343933,0.1140265,-0.50141084,-0.069489226,0.40996692,0.3192204,0.34924278,0.3838694,-0.21819642,0.22766867,0.39663196,0.092019334,0.8482123,-0.5595743,0.38906565,-0.08344412,0.33684385,0.57786185,-0.47890142,0.15516533,0.36499766,-0.23600578,0.22041376,-0.7660736,0.36805785,-0.46768093,-0.029794192,0.14258291,-0.05123909,0.019955492,-0.38518482,0.2778917,-0.21638511,0.1647595,0.4337965,0.38832805,0.16057628,0.12333467,0.2972908,0.19841336,0.09085733,0.2734515,-0.74973977,-0.56636167,0.20802775,0.254328,0.09829266,0.19694868,-0.21029684,0.13143256,-0.6217311,0.42493883,0.032208744,-0.48619583,-0.07971341,0.38050795,0.5651759,0.04325454,-0.047384802,-0.0003923815,0.14997517,0.00959135,0.406722,0.19868252,-0.013317019,0.07250781,0.66524506,-0.12478373,-0.24923745,-0.12881938,-0.33799535,0.019713134,0.11838095,0.4711887,-0.15937465,-0.0870228,0.23586671,-0.19930437,0.45846593,0.015317617,0.094132155,0.22660717,0.8307708,-0.24923226,-0.2428507,0.23073797,0.22928692,0.15703098,-0.015268533,-0.21015687
COUNTRY,0.17708583,-0.26508984,0.06367518,0.013125088,0.036904577,-0.5829025,-0.017702254,0.2145222,0.06470212,-0.5630878,0.39907464,0.135904,-0.37651908,0.40479824,0.03611765,0.3085671,-0.017153474,0.21346213,0.026048139,0.20986432,0.4920998,0.31419966,0.31274036,-0.40148225,0.27410188,0.03240272,-0.0058819554,0.31102344,-0.298868,0.21163745,0.119253755,0.16198805,0.08907557,-0.37130675,0.3492324,-0.47958934,-0.32145083,-0.34070733,-0.4676311,-0.07108001,-0.4193602,0.09123956,-0.05617535,-0.3057992,0.597158,0.34719986,-0.5313028,-0.3662589,0.38397843,-0.179467,0.20746881,0.34513405,-0.8293749,-0.79013336,0.32232553,0.17193429,0.032452777,-0.024365963,-0.1942617,0.12020388,-0.5281954,0.5442129,-0.08211587,0.15613814,-0.053366393,0.2890968,-0.20629355,-0.24276008,0.0548916,0.0026878486,0.009383182,-0.20530814,-0.15300986,-0.13173176,0.18959047,-0.0260046,0.3659697,-0.36155778,-0.31656563,0.12810524,-0.569313,-0.12478497,-0.22890829,0.48239377,-0.33939707,0.011542663,0.30599707,-0.0009358035,0.30552787,0.20320463,-0.22275682,0.532405,0.74420005,0.022249013,-0.52927643,0.23414955,0.22480135,0.45643827,-0.14083147,0.14938404
SENECA,0.012943134,0.016915455,-0.10230849,-0.04860035,0.08363419,-0.5031479,-0.11607903,0.4533087,0.23353522,-0.37269258,0.34950912,0.044759046,-0.1404066,0.16592975,0.18972607,0.45325416,0.14137909,0.35350475,0.084148474,0.26358435,0.6005839,0.2494374,0.41044873,-0.12247293,0.47522956,-0.2960828,0.22413339,0.73527867,-0.41727796,0.015726829,0.2446607,-0.008168553,0.4306386,-0.6639599,0.34395912,-0.11531577,0.107065246,-0.21043943,-0.39592427,0.36623728,-0.43449432,0.48476875,-0.23191243,-0.17845327,0.6503173,0.45708334,-0.20433274,0.18060952,0.1852227,0.061796963,0.0030304154,0.13302343,-0.8341763,-0.4774522,0.42657962,-0.06435299,0.08847901,-0.083519995,-0.26402545,-0.21101083,-0.5787192,0.46419212,0.21801676,-0.2070343,-0.053665496,0.36979142,0.12977137,-0.14262438,0.06142056,0.04031969,0.40318936,0.03154182,0.16578269,0.08617566,0.22170956,0.14706412,0.5452937,-0.11181484,-0.26389053,0.03969219,-0.7052413,-0.1917757,-0.019720856,0.6770258,-0.3704891,-0.1571742,0.40845698,0.31298134,0.5244624,-0.0749038,-0.17151585,0.6938566,0.75575984,-0.3545632,-0.28537428,0.22281015,0.15485449,0.20393603,-0.28546295,-0.09590361
COLONIE,0.2608347,-0.49424133,0.20605132,0.041311257,-0.19548921,-0.5288077,-0.019744882,-0.09218593,0.23406017,-0.4943564,0.33293793,0.27790818,-0.6492354,0.2709777,0.16171451,0.40888324,-0.28738558,0.36760375,0.21341869,0.48440677,0.89952415,0.2864174,0.38672313,-0.51240206,0.22351399,-0.18427663,0.30858305,0.41316578,-0.4067024,0.11249087,0.37057814,-0.15982412,0.28271347,-0.6620256,0.5080737,-0.6319924,-0.36322993,-0.25187153,-0.422371,-0.21553442,-0.5071158,0.38472998,-0.103163734,-0.15285395,0.66964763,0.40013883,-0.2591372,-0.16895896,0.7459683,0.12015938,0.19707456,0.42397147,-0.9706494,-0.744872,0.6717871,0.2149561,0.070554964,0.16731454,-0.29630816,-0.13147405,-0.6843951,0.6864466,-0.121024005,-0.36203155,-0.13120592,0.5373324,0.05246998,-0.27795103,-0.07909768,-0.048283234,-0.1260771,-0.12774593,0.22654994,-0.08851058,0.032843854,0.1269625,0.5946993,-0.42482215,-0.39488164,0.19427356,-0.7703081,-0.116365895,-0.46737,0.8903467,-0.18583593,-0.09698696,0.2286553,-0.04861042,0.4046968,0.2319323,-0.2487695,0.46137175,0.77675784,0.019024156,-0.6723438,0.32080323,-0.10208027,0.62031865,-0.15854318,0.21204036
HEMPSTEAD,-0.050758842,0.13438736,0.06550049,-0.15506002,-0.29228163,-0.12371358,-0.28549242,0.0700127,-0.023883862,-0.2178708,0.04457088,0.28337243,-0.2356385,0.06340378,0.39644516,0.10534366,0.23382333,0.4331997,-0.15803804,0.04287626,0.44062468,0.1750179,0.67878264,-0.024721416,0.26490986,-0.20758443,0.32530117,0.48796275,-0.5109812,0.23317575,0.6128884,-0.16897036,0.15960126,-0.79967153,0.26820257,-0.019210517,0.008703908,0.11843398,-0.13934824,0.029112779,-0.49772626,0.20316406,-0.241489,0.12974912,0.24461892,0.25655225,0.31134662,0.24839011,0.39207348,0.2323427,0.05931954,0.19223236,-0.74223757,-0.4627004,0.20673834,0.06864383,0.08064435,0.14533482,-0.2305418,-0.21693374,-0.27113762,0.32537156,0.26418513,-0.42099777,-0.15467238,0.41193458,0.54677665,0.107283555,-0.15252548,0.021099426,0.2975024,0.057440378,0.31984243,0.2403992,-0.0032175956,0.36053,0.59942335,-0.031747684,-0.1628038,-0.04401051,-0.3269743,-0.19657288,-0.06736235,0.4331964,-0.042709123,-0.38918874,0.092764825,-0.13431571,0.37683967,0.01658883,0.15150325,0.25313434,0.576357,-0.4532292,0.06274005,0.09766051,0.22537224,-0.0038677193,-0.16392453,-0.31064844
SPRINGS,-0.16595222,-0.009140931,0.20262755,-0.08877928,-0.21573387,-0.20188726,-0.06671425,0.124335624,-0.14364658,-0.46803802,0.18034555,-0.033189006,-0.24066587,0.109786704,0.1534,0.23200607,0.4325029,0.33565295,-0.20200862,-0.055388797,0.16248785,0.31730336,0.46518618,-0.41120675,0.33118537,0.13775069,-0.099447936,0.28442925,-0.28025758,0.24623539,0.24461025,0.023687162,0.23233053,-0.30751035,-0.012292848,-0.20192014,-0.087159805,-0.13110514,-0.06992528,0.10462548,-0.21083653,0.1490106,-0.15502775,-0.0440015,0.0887295,0.1093783,0.11969527,-0.13774931,0.24962147,0.12721907,0.17560668,0.13810106,-0.6847844,-0.1237635,-0.08041204,0.27848378,0.18203609,0.19286904,-0.071183525,0.16235572,-0.36657298,0.61323947,0.08467338,-0.17922553,-0.0872804,0.2867694,0.22442439,-0.20186716,0.092659526,-0.12412152,0.14594668,0.047442768,0.1675961,-0.05721298,0.07561816,0.15711352,0.36700684,-0.09809071,-0.3001637,0.23899472,-0.28348014,0.105916806,-0.043207765,0.31987783,-0.05854701,-0.09985791,0.09341713,-0.32761043,0.37869355,-0.04096419,-0.08836664,0.4169416,0.43870628,-0.3278934,0.22975494,0.25509495,0.40176484,0.13359904,-0.30488536,0.060550544
MANOR,-0.10559197,-0.29197103,0.2888505,0.028604819,-0.59685546,-0.031410262,-0.26779202,-0.5559509,0.12190124,-0.18104516,-0.37483853,0.48716524,-0.59538436,0.0064836307,0.08858879,-0.30456167,-0.4061117,0.20753552,0.39464855,0.4120157,0.65839326,-0.035303716,0.19313945,0.102079526,-0.010208955,0.023323432,0.04372403,0.21489026,-0.15515691,0.20982967,0.35256392,-0.106774874,0.2269206,-0.45808077,0.2606341,-0.4365419,-0.6202234,-0.0057376088,-0.19960366,-0.49805954,-0.60735124,0.38556102,-0.16043693,0.30210257,0.046238106,-0.22750671,0.26833448,-0.004757696,0.8336549,0.29891157,0.1885296,0.3632364,-0.74394363,-0.46718323,0.54088336,0.024799114,-0.037805393,0.30919486,-0.33417535,-0.26574236,-0.2195454,0.32049838,0.17183872,-0.32113153,-0.07027037,0.18105797,0.2743903,0.15219764,-0.252559,0.029485466,-0.05864603,0.007970757,0.25349295,-0.043905757,-0.18488203,0.5893584,0.40150318,-0.09399347,-0.016767293,0.3298144,-0.45964092,-0.09372498,-0.24924676,0.82346535,0.085335694,-0.3219172,0.08976684,-0.2733788,0.118844755,0.1729259,-0.016808134,0.046672422,0.24566881,-0.14232829,-0.2949861,0.17732361,-0.109509036,0.32559288,-0.12856226,0.25735718
PINE,0.058345873,-0.108470015,-0.021404177,-0.106160216,-0.5315993,-0.32393545,-0.36257532,-0.024849653,-0.02015504,-0.4336422,0.31652904,0.12862027,-0.47628254,0.48546928,-0.14695725,-0.11641127,0.06932634,-0.023829548,0.054767113,0.19046073,0.5245894,0.4498635,0.45294473,0.011165791,0.23832338,0.28282562,-0.06088601,0.21105765,-0.18070546,0.11886358,-0.020555714,0.20947579,0.057332963,-0.035802003,0.2926081,-0.24924722,-0.14807354,-0.45752376,-0.40165064,-0.020347917,-0.516658,0.060778756,-0.20368025,-0.17170206,0.12085237,0.10566044,-0.06469227,-0.39807153,0.67258394,0.028114155,0.092381775,0.3856736,-0.6755611,-0.29558778,0.5320106,-0.011030907,0.1227837,0.005647572,-0.21456996,-0.09481307,-0.09865883,0.72329056,-0.026291657,0.104538985,-0.18357216,-0.049112458,-0.20316182,-0.119104184,-0.06361936,0.019278802,0.24878621,-0.20556399,0.09003147,-0.21275826,-0.063354395,0.3381222,0.3353775,-0.2726721,-0.32077175,0.011412706,-0.72331727,-0.16150127,-0.30359945,0.6802951,-0.10863113,-0.04298759,0.010755783,-0.07564158,0.18662778,0.13982409,-0.19839491,0.5117882,0.5899455,-0.29610467,0.012123143,0.20386738,0.16174686,0.38481417,-0.3408057,0.10054096
BEACH,-0.23987508,-0.06830933,0.3359522,-0.060643785,-0.3062967,-0.2832688,-0.12147093,-0.009408314,-0.014628864,-0.42289832,-0.020559521,0.4445383,-0.45898873,-0.33809918,0.49196276,-0.12039808,0.0020325722,-0.010470754,-0.26005718,-0.03972868,0.7044072,0.025280077,1.1201603,-0.1179504,0.4500132,0.42142197,0.3052285,0.19838683,-0.41049886,0.40952772,0.34416726,-0.17985898,0.062591136,-0.8198915,0.6749302,-0.31071872,-0.16664185,0.44624048,-0.23226194,-0.21099474,-0.3055606,0.09436997,-0.14085765,0.21175759,-0.29565328,-0.11494509,0.2533559,0.24328232,0.4242675,0.2806324,0.26577526,-0.18804693,-0.34841365,-0.37470952,0.54849046,-0.03333013,0.08233953,0.39577362,-0.13614093,0.25762948,-0.4035353,0.114746325,0.0989649,-0.21390967,-0.031615224,0.3850402,0.23673734,0.521682,-0.11730895,0.03678198,-0.10059033,-0.010172444,0.31121472,0.41213647,0.02643101,-0.20978823,0.12649952,-0.15491588,-0.34187418,-0.119822666,-0.36778855,0.16753688,0.10490332,0.35877085,0.060396608,-0.24146903,0.21768188,-0.15213914,-0.06775238,-0.08676345,0.8151102,-0.036507536,0.39736965,-0.09535069,0.0003407736,0.08740124,0.2466425,-0.12600657,-0.35108897,-0.3071838
ROCHESTER,0.080705166,0.078876436,0.18148653,-0.04480887,-0.30031842,-0.20652966,-0.15566704,0.018342284,0.008868762,-0.049286183,-0.14474657,0.33588138,-0.22832802,-0.13947862,0.17454933,-0.17440112,-0.16230862,0.072251745,0.06373402,-0.08877376,0.4133711,0.09151206,0.5263205,0.1181079,0.15002765,-0.057994295,0.21361278,0.19757853,-0.26905334,0.24978523,0.3084188,-0.013907831,-0.061852414,-0.61956096,0.38856673,-0.08352951,-0.11377467,0.19209109,-0.17241022,-0.2938713,-0.4031403,-0.04827968,-0.11390936,0.13294911,-0.054192103,-0.0014731502,0.17569615,0.2605663,0.38684928,0.18075383,0.02693147,-0.11415618,-0.326565,-0.43186828,0.42361984,-0.2775269,0.15859984,0.07513755,-0.3817189,-0.04336743,0.0599964,-0.08111524,0.22595192,-0.20088415,-0.07968264,0.36256635,0.17380834,0.12036814,-0.3096707,0.11964848,-0.005525278,-0.10929423,0.1832287,0.039001007,-0.026238553,0.10544437,0.22780703,-0.16283014,-0.09480379,-0.25424767,-0.049847215,-0.07405692,-0.15819569,0.23576856,-0.03906613,-0.26232493,0.09859917,0.1495433,-0.07495552,0.17986375,0.50589097,0.024142459,0.17805107,-0.023814103,-0.2977431,-0.10037754,0.07153405,0.0037276112,-0.056507602,-0.39663413
SHORE,0.1626668,-0.28538108,0.11503962,-0.1218944,-0.43928316,-0.31467262,-0.18203011,-0.124462545,0.072048046,-0.15591921,0.08407151,0.47226992,-0.5866108,-0.0022878975,0.18379314,0.30229643,-0.12476135,0.38501412,-0.00043148175,0.08508521,0.68956184,0.035555184,0.77068055,-0.0688493,-0.05504753,-0.20600559,0.4630457,0.10308498,-0.35148787,0.14886907,0.75257176,-0.44243398,0.18186884,-0.8604215,0.6521462,-0.114677794,-0.08076017,-0.006831436,-0.18339881,-0.340603,-0.41470972,0.019771695,-0.20506682,0.074904874,0.35487905,0.19583422,0.031109331,0.18331379,0.6187562,0.37597743,0.027706869,0.19396703,-0.5055063,-0.1449359,0.25696427,0.28512263,0.30224007,0.16598493,-0.2760876,-0.32254833,-0.16487226,0.33572286,-0.16694331,-0.46114647,0.062237773,0.6267075,0.26558614,0.04480497,-0.103672884,0.0159122,-0.20566751,-0.014932955,0.21028097,0.20978488,0.04299063,0.1609367,0.19513431,-0.0049328483,0.06668756,-0.053346094,-0.38804576,-0.16838819,-0.22863439,0.41160625,0.021479303,-0.1916292,0.014175763,-0.12794593,0.15348974,-0.004069161,0.22107834,-0.06525785,0.12501033,-0.14261702,-0.3079932,0.24398533,-0.2657891,-0.01589315,-0.48274973,-0.119103216
HIGHLAND,0.00014482335,-0.15089202,0.073648795,0.036242064,-0.04474292,-0.41857755,-0.11125284,0.26942524,0.06328429,-0.35162258,0.25349247,0.2430386,-0.09147477,0.12256633,-0.111037165,0.22696045,0.1274358,0.09523459,-0.031219956,-0.009559614,0.48427776,0.11440568,0.3607818,-0.096112475,0.29241225,0.14626938,0.04339801,0.34380436,-0.15523578,0.15355334,-0.06932099,0.2376524,0.29943958,-0.2993646,0.57787883,-0.36523217,-0.2089489,-0.4056036,-0.55811536,0.06505039,-0.3588136,0.1924911,-0.12780543,-0.12171398,0.32738614,0.01960469,-0.43153477,-0.049807366,0.1480254,-0.05638843,0.13392617,0.115084454,-0.729631,-0.3456336,0.3866072,0.01722582,0.110612586,0.023935637,-0.18308257,0.18232162,-0.44684383,0.37995774,0.07658659,0.174553,0.011276325,0.1814218,-0.1421754,0.13535309,0.18188418,-0.0760605,0.17647956,-0.18956813,-0.14066958,0.012020464,0.16802575,-0.03461063,0.20002747,-0.13505758,-0.29255122,0.06778014,-0.66519237,0.059880186,-0.027239008,0.5433614,-0.35081786,-0.008036081,0.48224697,0.15353903,0.25386268,-0.12661248,-0.02558502,0.56517833,0.3708978,0.034218248,-0.29494348,0.27977252,0.31531438,0.3165388,-0.42832276,0.07032232
NECK,-0.312239,0.1725552,0.33888614,-0.022231285,-0.16285042,0.021525765,0.0049694222,-0.02227487,-0.07935616,-0.45293877,0.3425273,0.47151515,-0.34052402,-0.1783708,0.29057983,0.15163279,0.37312856,0.31456438,-0.43638384,-0.10012097,-0.09510498,0.05081091,0.9541693,-0.008492074,0.10787695,-0.084803246,0.32108733,0.4341189,-0.385448,0.20318045,0.5069237,-0.13193391,-0.006432767,-0.7582314,0.30674908,-0.011467876,0.12996703,-0.06952563,-0.20849441,-0.049731888,-0.33433616,0.0673064,-0.37192002,0.15885255,0.5656547,0.013786092,0.29470518,-0.015013063,0.28929627,0.2121526,-0.009446438,0.35490438,-0.86352485,-0.36023882,-0.2363478,0.25295308,-0.21065976,0.064955875,-0.094920985,-0.24500173,-0.18575957,0.4850585,0.5118846,-0.32888734,-0.22199371,0.20479888,0.42668846,0.36143628,-0.11384772,-0.2829538,0.37710097,0.3421955,0.2128021,0.68274647,0.010853881,0.24732096,0.29658166,-0.05486994,-0.22626825,-0.18296273,-0.23197298,-0.22851963,0.17892282,0.43299028,-0.37643486,-0.45925742,0.45974898,-0.38156655,0.13513859,-0.2576797,0.2232681,0.25543076,0.419244,-0.24849956,0.3929147,0.077805266,0.44260192,-0.21594962,-0.3084917,-0.47532985
IRONDEQUOIT,0.05489762,0.2036976,-0.017373374,-0.19596587,-0.30132195,-0.20275763,-0.31144902,0.13691047,0.06576352,-0.122464806,-0.021184228,0.38200298,-0.17860074,0.16586807,0.21862921,0.02992888,-0.07954548,0.3045459,0.06745803,-0.083860524,0.4458478,0.33695075,0.60736895,0.15980467,0.18047181,-0.40402442,0.21568684,0.5840256,-0.47615466,0.25703347,0.6865929,-0.04253092,0.06456097,-0.8459516,0.308482,0.08516268,0.030086493,-0.04225771,-0.3163201,-0.03308226,-0.63981444,0.14682326,-0.33911908,-0.046742983,0.39222857,0.18170287,0.06588165,0.27040625,0.50362366,0.106523156,0.020245114,0.22847673,-0.79116964,-0.5685491,0.29973665,-0.12050934,0.052916285,-0.05116414,-0.5150486,-0.47857934,-0.10081581,0.35164094,0.37461928,-0.30134377,-0.24066854,0.5610367,0.32965502,-0.12980969,-0.29488605,0.06906331,0.3408574,0.13789777,0.17109461,0.037247382,0.057443075,0.33131737,0.57123405,-0.15178308,-0.06065598,-0.21911189,-0.3363737,-0.31092158,-0.26146814,0.44763368,-0.30526695,-0.45871428,0.29601568,0.12513225,0.13437548,0.19551066,0.19442405,0.43374684,0.44590738,-0.36441877,-0.16723426,-0.02359741,0.091503546,0.058978252,-0.21760234,-0.42007235
PLAINS,0.0028482128,-0.23231937,0.0037849387,0.07987631,-0.16135032,-0.44240868,-0.24992879,0.25416633,-0.09647692,-0.2925501,0.02010793,0.33926985,-0.2921727,0.2801994,0.036143005,0.08196667,-0.18574184,0.02516925,0.08811852,-0.15267357,0.64629054,0.26199052,0.45469773,-0.032887537,0.2497448,0.2753816,-0.29085863,-0.13501838,-0.20697889,0.3382504,0.18469569,0.33638576,-0.11669495,-0.3594972,0.6619257,-0.40968046,-0.39928365,-0.40608078,-0.42526248,-0.3297822,-0.30670998,-0.12829842,-0.07443435,-0.16448408,0.1095826,0.09160196,-0.33427134,-0.3446559,0.69416046,-0.08126368,0.41152152,-0.14172444,-0.46021578,-0.4414511,0.6251242,-0.03688292,0.00461998,0.24287206,-0.090993814,0.32386735,-0.28340417,0.62810534,0.045709148,0.45022085,-0.0056313667,0.18657848,-0.50468063,-0.0801281,-0.06307891,-0.100163504,-0.0556534,-0.35101917,-0.23304208,-0.012567986,0.08291608,-0.07754592,0.044508222,-0.5426704,-0.36477822,0.10057188,-0.67819643,-0.093053244,-0.4064649,0.4673681,-0.3092811,-0.13072121,0.2074701,0.1066919,0.08995678,0.17525394,0.16574246,0.43022633,0.26706773,0.24661398,-0.26753524,0.07093573,0.34658974,0.35023072,-0.2995184,0.09387366
AT,-0.09737689,-0.21742964,0.15297206,-0.057083447,-0.3639339,-0.12000252,-0.27763087,-0.13245985,-0.15372662,-0.30972934,-0.13056941,0.17312291,-0.5239553,0.30632013,0.06815105,0.11369466,0.12982541,0.32675207,0.014914545,0.15019187,0.8857166,0.4461056,0.48717868,-0.5321583,0.72857755,-0.023688914,0.1920285,0.4245584,-0.49115455,0.21314193,0.29261747,0.13702561,0.44086987,-0.46292138,0.2902935,-0.66266346,-0.43832943,-0.09386488,-0.11454678,-0.20486115,-0.54114944,0.37204492,-0.26899543,0.11204094,0.056568537,0.0658698,-0.012817983,-0.069615275,0.64695406,0.04645291,0.2830196,0.5117853,-1.1362005,-0.5511032,0.5879843,0.17125663,0.126623,0.29167482,-0.33006302,0.27249044,-0.53374547,0.7335207,0.01770192,-0.46562082,-0.30179247,0.29771206,0.52408016,-0.10018069,0.062004447,-0.060075413,0.036808863,-0.010700953,0.17471345,-0.26171023,0.05506837,0.1570103,0.9380662,-0.43935332,-0.46481416,0.13231477,-0.7335928,0.061346877,-0.30757117,0.6671196,-0.23488383,-0.27183235,0.37460983,-0.41794708,0.50776863,0.23018838,-0.25674453,0.5888735,0.8724108,-0.2334005,-0.037579823,0.33515593,0.20949039,0.7187231,-0.06015427,0.29195413
CREEK,-0.21206251,0.12861107,0.2418146,0.08500208,0.21597461,-0.17014477,-0.22545725,0.040530153,-0.22687653,-0.36836153,0.11638072,-0.08165945,-0.037765585,0.368915,0.3111865,0.3642942,0.2538249,0.4435138,-0.2897608,-0.20133957,0.46281984,0.079288274,0.402714,-0.54769087,0.22637615,0.24027024,-0.10143543,0.34743538,-0.17793067,0.038460936,0.24710709,0.24589309,0.23453858,-0.062916346,0.12466358,-0.50359005,-0.13459487,0.16287307,-0.23561032,0.08448693,-0.044839304,0.25220066,-0.2539067,-0.117635354,-0.025344994,0.10391662,-0.030644165,-0.24126457,0.17844592,0.04010949,0.12041573,0.08796698,-0.63683647,-0.36780265,0.22989254,0.2787278,-0.26431417,0.11916565,-0.094338015,0.24350095,-0.37036762,0.462355,0.043720156,0.2335922,0.012468962,0.04235147,0.23738223,-0.06666414,0.25701573,0.057560235,-0.047802683,-0.1919312,-0.086467534,0.20551024,-0.052685563,0.07365809,0.2982914,-0.43057767,-0.45360172,0.03714266,-0.32990256,-0.10097915,-0.030188618,0.42232507,-0.23366325,0.03143667,0.20497566,-0.5567778,0.3453288,0.033055108,0.042963,0.3090909,0.37233752,-0.04833219,-0.105927594,0.3542696,0.2509108,0.29274094,-0.24341099,0.2955577
HAMPTON,-0.0054539824,0.13381392,0.29492489,-0.07168073,-0.5178381,-0.24701214,-0.2726335,-0.09454406,0.07683419,-0.12553132,-0.12990162,0.48136827,-0.46549588,-0.010951727,0.20715563,-0.20609249,-0.103782006,0.24731101,0.06875045,-0.04116385,0.366254,0.08974108,0.62743646,0.2102627,0.011513227,-0.2135197,0.21295264,0.5168856,-0.42047507,0.23606396,0.5660281,-0.10531145,-0.048463535,-0.8855741,0.29049242,-0.094813466,-0.11710567,-0.0075636655,-0.23803894,-0.3569472,-0.7968708,0.13740826,-0.3764945,0.1508213,0.275875,-0.007948756,0.21296339,0.21929432,0.68303865,0.42783844,-0.01992376,0.2128905,-0.76271814,-0.51789266,0.29135746,-0.15742834,0.14736326,-0.0021141167,-0.6453724,-0.35603142,0.1018661,0.21201351,0.3175192,-0.43973595,-0.018147117,0.39419076,0.37595204,0.14871088,-0.35333595,0.08284958,0.14752597,0.103453524,0.28578502,0.105492644,-0.093553424,0.48014215,0.44142607,-0.10124897,0.06396637,-0.23950113,-0.19190688,-0.18310486,-0.24258378,0.5430166,-0.19094254,-0.45478922,0.15965413,0.053908017,0.05720684,0.25366092,0.42745182,0.09582483,0.3090551,-0.32592487,-0.12451458,-0.009646723,0.053898755,-0.12695949,-0.22409578,-0.42642713
JAMESTOWN,0.11864683,-0.2136661,0.055780053,-0.0047762445,-0.20222977,-0.32482377,-0.08854378,0.030059675,-0.09331965,-0.08369565,-0.09218678,0.20301378,-0.30466548,0.24346001,0.036823343,-0.0010783307,-0.13382725,0.03698103,-0.00029181445,-0.035981305,0.72198826,0.1713818,0.29766208,-0.10990551,0.35816127,0.10625565,0.108949214,-0.01652776,-0.21974821,0.2729227,0.14359833,0.23265415,0.16399366,-0.4298923,0.40147075,-0.37883282,-0.3308142,0.045474354,-0.1324089,-0.4190167,-0.29752156,0.014402742,-0.09133253,0.071213014,-0.014141833,-0.013057206,-0.13636681,-0.014968417,0.5039963,0.0015371498,0.10457127,-0.018363472,-0.39792746,-0.44910872,0.61153996,-0.07842456,0.09494406,0.17391784,-0.20061095,0.34619078,-0.123245925,0.12553267,0.040582143,-0.08588574,-0.15447734,0.15084082,-0.05864351,0.10271317,-0.08206215,0.091015995,-0.21048024,-0.19004413,-0.04766231,-0.052081097,0.075830564,0.010443367,0.2126719,-0.28428572,-0.29954845,0.00758636,-0.28771445,0.06727603,-0.27761665,0.25837213,-0.20770594,-0.12733558,0.16068514,-0.11379246,0.15471163,0.2466491,0.16750824,0.2238971,0.3373702,0.120879866,-0.25522307,0.032949444,0.10466518,0.3820814,-0.08055275,0.08692367
HARBOR,0.028417585,-0.15299204,0.28787136,-0.06778013,-0.4222905,-0.088724315,-0.36819255,0.0014898842,-0.20459051,-0.32740626,-0.24538866,0.4460301,-0.4205425,0.19381818,0.09012734,-0.1920993,-0.21360137,0.2555642,0.04318441,-0.22739217,0.6714739,0.008923711,0.5543046,0.27002576,0.06007705,0.05427417,-0.25924703,0.18314789,-0.21672596,0.32696018,0.1747497,-0.10217053,0.21870637,-0.74521697,0.40018332,-0.17303108,-0.5269978,-0.002088668,-0.094546676,-0.4381864,-0.47885874,-0.040493924,-0.25813836,0.3265862,0.049047574,-0.37809008,0.18201418,0.09436763,0.6047008,0.26531348,0.13940369,0.13799086,-0.570171,-0.25882027,0.39702767,-0.17061926,0.2055118,0.16894168,-0.23080169,-0.18593079,-0.0788448,0.2485207,-0.025419097,-0.095715724,-0.15304355,0.43935156,0.3031709,0.19952303,-0.067175925,0.24176681,-0.13493185,0.022271404,-0.008428679,0.025299532,-0.011395612,0.27213946,0.10969624,0.041031137,0.23703226,0.12128463,-0.360758,-0.08039959,-0.13561073,0.52923065,-0.08970978,-0.14456925,0.090821326,-0.15584387,-0.0028679965,0.2213312,0.23135217,-0.010792924,0.08721237,-0.28909206,0.04496836,0.20069346,-0.20252347,-0.06358011,-0.4371031,0.040407877
ACADEMY,-0.0895597,-0.049541414,0.08657219,0.048314027,-0.26447612,-0.12671505,-0.18481936,0.087325476,-0.3104117,-0.33840203,0.006008357,0.19644266,-0.2809494,0.1468499,0.23041886,0.17950098,0.5530121,0.46456978,-0.33081132,-0.049091637,0.93093395,0.40374032,0.7413347,-0.5185469,0.7348459,0.03664642,0.06704454,0.58489454,-0.5172363,0.27120692,0.4738475,-0.019872626,0.3858479,-0.7272909,0.39812326,-0.5717766,-0.37197214,0.048369523,-0.046531748,-0.15303963,-0.65855104,0.36716464,-0.17498083,0.12587096,0.048010625,0.27084503,-0.016555863,0.06898964,0.50080734,0.09299001,0.29070124,0.41750488,-1.2383857,-0.57550824,0.4169279,0.15392621,0.042537246,0.25421777,-0.18473388,0.25715476,-0.5854067,0.6248266,-0.021791812,-0.28277543,-0.4328979,0.35391405,0.55877167,0.04673387,0.06963856,0.033175573,0.05205216,-0.13151763,0.20554885,0.024744293,0.001106859,0.06833004,0.87186813,-0.26873383,-0.33960724,0.025189903,-0.61028826,0.18460873,-0.022300236,0.5269403,-0.3442899,-0.36182237,0.25426617,-0.655601,0.44728202,0.05250817,0.0012978633,0.33922637,0.869163,-0.18300995,0.15254062,0.22746089,0.33909616,0.51687527,-0.3267908,0.0044509666
JEFFERSON,-0.13130279,-0.0686355,0.25281388,0.106711164,-0.005231299,-0.12114545,0.1534155,0.17891613,-0.053308383,-0.4819014,0.40459603,0.23578359,-0.4101646,-0.10011913,0.1906002,0.30804327,0.18270892,0.19309656,-0.22348365,0.22414994,0.0723732,0.17213728,0.9979919,-0.5216138,0.33327764,-0.13627093,0.1936899,0.41246843,-0.33677477,0.17711051,0.23758508,-0.22049505,0.3524018,-0.7996656,0.3599792,-0.3951413,-0.013498357,0.044284087,-0.08631894,-0.0021431549,-0.12885475,0.14735407,-0.26428694,0.09570934,0.5000522,0.28307086,-0.023666771,0.22386532,0.14533406,0.0027136572,-0.0021166368,0.4151178,-0.64734006,-0.56173235,0.01821578,0.2309497,0.07022153,0.15031697,-0.059926797,0.10708523,-0.5523127,0.5557819,0.039007235,-0.39259386,-0.2643384,0.19398364,0.29996786,-0.040832415,-0.16066767,-0.10113939,-0.009923041,0.09125107,0.37299782,0.34231964,0.085332155,0.051151797,0.59491616,-0.10728437,-0.26235762,0.005593034,-0.22018044,0.15809119,0.2711151,0.42668244,-0.29849824,-0.093258984,0.38123724,-0.076289155,0.23573723,-0.028198576,0.05933191,0.24749047,0.5077948,-0.050961222,-0.11592133,0.049180645,0.13209233,0.097989686,-0.07450742,-0.31422213
GLEN,-0.31284428,-0.122444235,0.25919697,0.112670526,-0.1379026,-0.28326097,0.13843642,0.4114334,-0.021521438,-0.41697088,0.21850587,0.20141016,-0.2282567,-0.1955112,0.11529629,0.19969004,0.16217424,-0.00033097778,-0.47045538,-0.26378232,0.56619364,0.09957251,0.7263358,-0.064893685,0.15324037,0.18677986,0.36996233,-0.1558959,-0.15338914,0.26614112,-0.14744963,0.12794681,0.17192283,-0.44387153,0.67808664,-0.21236677,0.077451155,-0.08783173,-0.3377762,0.052204065,0.123188995,-0.058267243,-0.06698158,-0.0962331,0.0764096,0.07733057,0.025669267,-0.12760021,0.46516722,-0.08650816,0.35855347,-0.25195846,-0.28956047,-0.09503591,0.123396344,-0.0047440873,0.04863497,0.15974125,0.034059286,0.5248077,-0.3001862,0.46394655,0.045030054,0.009521606,0.19992623,0.17221339,-0.07552462,0.23375958,-0.042854402,-0.14126834,-0.02201724,-0.07071267,-0.040391892,0.23683566,0.32827413,-0.37691388,0.1622518,-0.32027832,-0.6193772,-0.1372668,-0.49645153,0.22049597,0.09707476,0.03626117,-0.386765,-0.1395885,0.19549154,-0.09488651,0.19306622,-0.026187252,0.49033856,0.12515299,0.3684123,0.23901677,0.21994932,-0.038813278,0.45292434,-0.09225244,-0.4026852,0.18980318
NORWICH,-0.0966367,0.008243134,0.0062403968,0.13877802,-0.2750819,-0.17741378,-0.12218859,0.18800853,-0.32368964,-0.31427583,0.11495986,0.12366411,-0.24882844,0.17246501,0.19666731,0.105184615,0.13640507,0.22264974,-0.28838122,-0.21537778,0.6814771,0.32440525,0.7810268,-0.34325972,0.5412673,0.18261568,0.16526093,0.11979553,-0.46929017,0.41068769,0.26365238,0.18671918,0.14275031,-0.4931958,0.5594652,-0.4127183,-0.14028081,0.1577265,-0.07071047,-0.1485335,-0.2100385,0.008737497,-0.104061574,-0.034903996,-0.14463896,0.08447108,-0.04989487,0.038153928,0.49165437,-0.14034116,0.20254773,0.017252075,-0.5121426,-0.4780815,0.5603575,-0.10568411,0.116082884,0.15539518,-0.17468613,0.49371007,-0.2727206,0.43288568,0.15731278,-0.1190991,-0.24351527,0.5153179,0.3293753,0.04298618,-0.022124805,0.028301336,-0.06141814,-0.19394402,0.04887199,-0.01064929,0.1685924,-0.06954168,0.4046426,-0.25575596,-0.3037509,-0.22419055,-0.32566112,0.107935645,-0.005748356,0.13672996,-0.20086895,-0.22484331,0.33167765,-0.22011451,0.26703656,0.062929444,0.2531161,0.4372353,0.49303624,-0.09213773,-0.03546563,0.07433283,0.3017121,0.23915543,-0.15344213,0.00042886686
GENESEE,-0.028801285,0.08690768,-0.12921877,-0.06537695,-0.34302446,-0.2202156,-0.2918757,0.21771877,0.06900126,-0.17991516,0.031887393,0.046164297,-0.21318483,0.42356443,0.02498234,0.093842514,-0.024101129,0.406702,0.08580322,0.018391756,0.4913631,0.44141123,0.27650464,0.14648075,0.29615897,-0.22642925,0.19271366,0.5171131,-0.49378964,0.09957411,0.38299876,-0.035319127,0.2569442,-0.47418478,0.06952963,0.045202326,0.19397034,-0.321636,-0.20822701,0.16320185,-0.48975256,0.14171031,-0.39691776,-0.124088876,0.42918113,0.22851096,-0.032101005,0.033589147,0.4791752,-0.012835982,0.0063597206,0.20477839,-0.5958131,-0.49148062,0.30946445,-0.026715979,0.16376811,-0.14864424,-0.3886545,-0.30857557,-0.15413767,0.37786967,0.16410036,-0.36796883,-0.10056951,0.25639614,0.281409,-0.12501888,-0.029972475,0.16545121,0.335296,0.15120538,0.1600106,-0.12588081,0.14221202,0.40989667,0.60134006,-0.11814608,-0.15218545,0.007927575,-0.5459659,-0.32835147,-0.21596092,0.42249665,-0.1910798,-0.30029285,0.11287066,0.12200973,0.30957296,0.2154235,-0.14009213,0.55471426,0.65303725,-0.6102883,0.04967718,0.15800826,0.03515229,0.085352466,-0.15531898,0.03496502
RYE,-0.11868645,-0.004365119,0.25563356,-0.028413592,-0.3738014,-0.19565365,-0.033919413,-0.0047324006,-0.16260727,-0.18538016,-0.029637076,0.24647732,-0.47787768,-0.06738162,0.21571963,-0.18958816,-0.20579347,0.19570343,-0.103927314,-0.1604213,0.4902461,-0.06961147,0.65626013,0.17450513,0.18637241,0.067890696,0.3035479,0.20600842,-0.30555046,0.3071161,0.36281374,-0.046904154,0.027004693,-0.76409996,0.4365389,-0.21219894,-0.03489041,0.13752191,-0.07381709,-0.44157827,-0.39704984,-0.19664517,-0.2741608,0.27804047,0.0036008554,-0.06289198,0.21893835,0.1861163,0.51770085,0.21698248,0.09860022,-0.18680982,-0.1814248,-0.31165645,0.4151335,-0.2634524,0.10726587,0.016124224,-0.39417604,0.03466391,0.032261737,-0.04204272,0.22653592,-0.332211,-0.08379421,0.4214719,0.2715142,0.26996964,-0.23842657,0.1490143,-0.19650765,0.07982926,0.2166391,0.26301554,0.10204895,0.28477415,0.10779442,-0.13914429,-0.23116751,-0.23620528,-0.056215405,-0.0925468,-0.02717268,0.26291195,-0.031935155,-0.32750326,0.050375737,-0.018668309,-0.027416358,0.16649508,0.6093577,0.027218096,0.22471133,-0.10092852,-0.031624578,-0.10419594,0.19294272,-0.20299745,-0.031937875,-0.3018477
FORT,-0.18919955,0.07459395,0.095730454,0.037277676,-0.023372762,-0.09291237,-0.09250447,0.023910148,-0.1351446,-0.29750967,-0.030498724,0.16107258,-0.40482807,0.08797137,0.22749099,-0.061150994,0.051380746,0.38117737,-0.13101047,-0.08212208,0.21628097,-0.047138557,0.53364277,-0.025231771,0.030596498,0.0034295341,-0.1635122,0.13818309,-0.20297559,0.22359012,0.23241684,-0.116698265,0.02720783,-0.4487268,0.15577237,-0.19515777,-0.05797866,0.015025162,-0.01008271,-0.112560734,-0.33034122,-0.0011595496,-0.17625798,0.14625642,0.15097195,-0.056958776,0.021711282,-0.012978779,0.4617943,0.11646625,0.20508085,-0.008498876,-0.29051337,-0.27915597,0.022021718,0.048213795,0.079437286,0.10691311,-0.26489136,-0.037832845,-0.09204416,0.23574908,0.057085775,-0.06703193,0.14770596,0.14839019,0.12971956,0.12288621,-0.0177786,0.02031858,-0.08147329,0.094183944,0.0953996,0.15277956,0.0047791414,0.174844,0.043698084,-0.010979679,0.009148173,-0.10647694,-0.26162422,-0.19060601,0.0123143,0.2926684,-0.13681987,-0.067633614,0.14491381,-0.1417598,0.10594734,0.15189481,0.27874973,0.16227871,0.2596258,-0.20693308,0.09579631,0.053699017,0.08492334,0.0037569907,-0.22310051,-0.014063227
GLENS,0.1048072,-0.30805567,0.19385496,0.069549054,0.1815437,-0.6332642,0.12273974,0.32489902,0.09921129,-0.5378668,0.43925813,0.14920196,-0.30326805,0.010680861,0.07363037,0.32213047,-0.07103893,0.11651835,-0.039919723,0.1393083,0.6294435,0.081887625,0.52755123,-0.33031783,0.38760906,0.22666174,0.10039909,0.2260833,-0.15150478,0.17249016,-0.1800319,0.20836206,0.26533347,-0.43781146,0.7396131,-0.60382587,-0.26885968,-0.29637542,-0.59821767,-0.051544767,-0.21467328,0.105558716,0.022428948,-0.14497861,0.4681558,0.22092658,-0.49682188,-0.178006,0.17765026,-0.1102698,0.17923175,-0.102075584,-0.6351442,-0.61260504,0.59077,-0.04696312,0.09908417,0.04485892,-0.12612104,0.35999128,-0.5921946,0.32049915,0.053726275,0.18320002,0.046979517,0.27136186,-0.30895618,0.0891985,0.08565189,-0.036158245,-0.07914951,-0.28592002,-0.06395286,0.1198806,0.1969634,-0.17630146,0.1664288,-0.31375587,-0.54867893,0.047054075,-0.6981063,0.041038718,-0.05458706,0.60036904,-0.41795328,0.10113493,0.47989693,0.2871474,0.22087279,-0.08534789,0.09465468,0.5644868,0.5700231,0.24063134,-0.6270122,0.23132606,0.41847128,0.3925402,-0.26799712,0.020787533
TONAWANDA,0.3264165,-0.3020816,0.07204489,0.05492804,-0.32977208,-0.41594055,-0.19773862,0.014823982,0.05367137,-0.0978596,0.10468239,0.32960123,-0.3592749,0.15135914,0.15777406,0.29726407,-0.19961065,0.27293435,0.014678122,0.013189592,0.84860235,0.1516452,0.5122349,-0.16650385,0.13303496,-0.01593318,0.4426135,0.0034934157,-0.3485101,0.20760128,0.43429273,-0.13573882,0.07333807,-0.60590047,0.6498719,-0.21889417,-0.1464845,0.012605395,-0.33429888,-0.29404405,-0.3154569,-0.10256306,0.0010839505,-0.030233366,0.20826112,0.28647843,-0.15184177,0.0048798304,0.54415053,0.1499004,0.07797331,-0.027777663,-0.42450762,-0.4020815,0.5208721,0.045657188,0.26049632,0.10332382,-0.2862624,0.021980593,-0.13812904,0.21171142,-0.16393758,-0.19706506,-0.0026232623,0.53464156,0.0047776066,0.05605512,-0.06851234,0.09800396,-0.26740333,-0.31547904,0.08156311,0.063782126,0.08538342,-0.017404824,0.17451443,-0.17027833,-0.20096493,-0.049725343,-0.38790536,-0.13545884,-0.4112442,0.34378633,0.06521844,-0.11251979,-0.009004245,0.040634863,0.14977331,0.059417393,0.27758372,0.0745344,0.26284352,0.13124827,-0.48766464,0.15973169,-0.08310211,0.20682274,-0.33789548,-0.031881373
BETHPAGE,-0.104368664,0.11900059,0.16178438,-0.04473621,-0.21456595,-0.044102103,-0.07899376,0.0023101014,-0.10274872,-0.20582661,0.048557427,0.14455834,-0.28033155,-0.009882632,0.22824125,0.0650068,0.27840972,0.23621888,-0.24140878,-0.13310257,0.27253616,0.12678708,0.52626467,-0.15005963,0.22940421,-0.029106144,0.10724199,0.29373088,-0.30467656,0.2103835,0.38350946,-0.04497297,0.14527367,-0.4901275,0.20197992,-0.07930388,0.07473299,0.11920164,-0.035162523,-0.009277929,-0.34982598,0.056800127,-0.2741484,0.15689252,0.109102555,0.054534808,0.20502438,0.14323989,0.31134897,0.24081837,0.0415599,0.16312586,-0.46761635,-0.19369492,-0.012949293,0.14843233,0.06452418,0.08234727,-0.16475336,0.05304617,-0.19206923,0.30734906,0.14990175,-0.29834273,-0.023281688,0.23194152,0.44696388,0.10151241,-0.07784101,0.033473127,0.14552777,0.11752526,0.1697175,0.15824823,-0.02791192,0.16987225,0.35768706,-0.02371386,-0.07685084,-0.040784456,-0.15402979,-0.026044065,0.03216106,0.22766598,-0.04280825,-0.23947628,0.109623976,-0.2207853,0.26131636,0.06046093,0.18062332,0.115983024,0.38896874,-0.32382727,0.11563424,0.07635425,0.2412404,-0.07488281,-0.11216931,-0.13921757
NEWARK,-0.037244394,-0.081006564,0.029220002,0.05705265,-0.32465005,-0.10731393,-0.20058665,-0.0010404072,-0.07365185,-0.14901672,0.0035969792,0.06968779,-0.20949419,0.341665,-0.1563764,-0.06161263,-0.028692884,0.20077877,-0.027029494,-0.08021416,0.2763952,0.29500255,0.18014157,-0.029927395,0.2068318,0.0842223,0.1299639,0.17948495,-0.23688212,0.13043211,0.054767888,0.09528032,0.11789471,-0.08082064,0.1349807,-0.22658177,0.01103052,-0.33270186,-0.15661775,-0.039272465,-0.25186884,-0.08076319,-0.24368809,-0.04868244,0.17187417,-0.0111938445,-0.14871788,-0.16848919,0.3386445,-0.124300644,0.074021295,0.15468481,-0.37458205,-0.34923375,0.18070719,0.105502546,0.16555482,-0.08956493,-0.27942348,0.07926123,-0.036229692,0.28702843,-0.035931747,-0.15753315,-0.033867676,0.03990878,0.11971983,0.05623379,0.07748595,0.081660114,0.091972396,-0.030005421,0.041452613,-0.1972534,0.030824775,0.21422885,0.32691774,-0.15005401,-0.18281072,-0.0002518293,-0.38247272,-0.106080756,-0.20942788,0.21824925,-0.090458766,-0.10843161,0.08445498,-0.027973406,0.11687041,0.15420395,-0.10794049,0.37198123,0.4245934,-0.26829982,-0.0073399916,0.19175167,0.14975345,0.17851068,-0.07459154,0.16211057
PLACE,-0.19341275,0.14573298,0.12740698,-0.19835657,-0.205212,0.02530835,-0.17127506,0.009378369,-0.28217167,-0.35717964,0.15311217,0.29499227,-0.34990415,-0.06377846,0.37599033,-0.043626916,0.19137791,0.31857836,-0.30449492,-0.303723,0.24793915,0.027090404,0.9533163,-0.10064592,0.22799769,-0.089482546,0.35143417,0.23807505,-0.39877445,0.35930374,0.5545122,-0.20806246,0.16510414,-0.8137884,0.38227162,-0.21556804,-0.048822787,0.20608173,-0.052130204,-0.13243596,-0.26685357,-0.10280879,-0.31096753,0.25792885,0.18386868,0.06397623,0.31997544,0.111913905,0.35740417,0.16251338,0.11601342,0.17570682,-0.5652895,-0.2393957,0.10980263,0.08074367,-0.034598365,0.046645086,-0.14510342,-0.086066894,-0.17926568,0.3210596,0.24465093,-0.34259868,-0.18125905,0.3576412,0.6523429,0.19869317,-0.20908727,-0.00868039,0.11000073,0.13152868,0.20028,0.45367795,-0.06828062,0.20505773,0.3501168,-0.025440091,-0.28798968,-0.13259928,-0.18406838,-0.13215397,0.07016931,0.2578306,-0.17655239,-0.4242389,0.15427773,-0.29534167,0.23780474,0.0009828074,0.2983623,0.12703688,0.36109328,-0.27372497,0.1406579,0.04578766,0.41176596,-0.16497073,-0.14696577,-0.26555398
ELMIRA,-0.030206049,-0.11637031,0.051784307,0.023095429,-0.041012738,-0.24151008,-0.069223724,0.12373217,-0.17297009,-0.23897135,0.026692912,0.08700816,-0.20727193,0.1284568,0.1496917,0.06855381,-0.08694228,0.21888703,-0.12492254,-0.17526186,0.4712931,0.12698151,0.34643167,-0.08418674,0.28664586,0.20597517,0.0041117677,-0.039982583,-0.17117564,0.30878657,0.07863702,0.18348579,0.03149196,-0.33527383,0.3874633,-0.26612967,-0.19954146,-0.061264116,-0.2427863,-0.20656426,-0.159863,-0.17473386,-0.0034171003,-0.015550682,-0.0047579273,-0.0076954886,-0.08448843,-0.17712061,0.3010499,-0.087264776,0.22138305,-0.18818206,-0.21094862,-0.35633272,0.33485776,-0.10396459,0.06701179,0.04963515,-0.08360406,0.27784422,-0.16062653,0.13332443,0.073314585,0.028824948,-0.059890136,0.31957686,-0.02103986,0.049124595,-0.004290254,0.07003014,-0.17098258,-0.18457137,-0.1261509,0.057575688,0.108886905,-0.044243522,0.074528076,-0.20365605,-0.3540645,-0.09200238,-0.3646073,-0.0036314237,-0.0902564,0.15846995,-0.13605581,-0.06154407,0.15163824,-0.03007557,0.055800922,0.047176942,0.25803563,0.19263768,0.2520982,0.045065433,-0.21214385,0.06104752,0.37320012,0.091075286,-0.13806294,0.06702585
CHENANGO,-0.13693196,-0.015324741,0.11891275,0.15389498,-0.32730553,-0.23979497,-0.22324798,0.07782393,-0.05911463,-0.27898687,0.12486358,-0.058836017,-0.27961004,0.40529457,-0.12640938,-0.0035730628,0.02055646,0.21363097,-0.07065156,-0.09745181,0.2719739,0.29755175,0.17457235,-0.027074516,0.31190285,0.17814158,0.11707948,0.31062162,-0.33185577,0.07560558,-0.021585563,0.16083097,0.105716534,-0.0682523,0.12919465,-0.2450344,0.10561877,-0.42446405,-0.17521058,-0.04850893,-0.3953135,-0.062909245,-0.271017,-0.11032311,0.19428384,-0.011389988,-0.22351725,-0.23207316,0.50625503,-0.021268243,0.052496158,0.17821583,-0.4504601,-0.40829998,0.19449458,0.041170776,0.22621076,-0.1988138,-0.40570778,0.13813272,-0.022617115,0.3658857,0.07567308,-0.13549504,-0.03101126,0.016132392,0.16960669,0.069989495,0.13152638,0.16219959,0.17301722,-0.032757808,0.05154211,-0.13262007,0.11038228,0.32971582,0.36441293,-0.24975187,-0.24006064,-0.025655825,-0.4367069,-0.062198736,-0.17309271,0.22441195,-0.1717058,-0.1653927,0.08677337,0.0006668691,0.2221297,0.23996313,-0.011765945,0.5210571,0.6323758,-0.315908,0.07607974,0.2375884,0.2902342,0.091686085,-0.15076038,0.21096969
#12,0.009728448,-0.2255608,0.26129088,-0.103500314,-0.1747601,-0.5126753,-0.09879323,-0.014327682,0.07627003,-0.33329898,0.0022173852,0.37393138,-0.39324817,0.10112121,0.085581824,-0.10312745,-0.46690935,0.16619092,0.09503275,-0.061331104,0.57507396,0.048813257,0.4055508,0.24219939,-0.15641783,0.39851636,-0.17888173,-0.18410219,0.013273977,0.35136223,0.063825786,0.20279774,-0.027136335,-0.3879788,0.65608317,-0.3266032,-0.44398287,-0.3560443,-0.6521087,-0.48279613,-0.36719596,-0.2062578,0.03450049,-0.12383582,0.23902436,-0.16161433,-0.3201422,-0.45477232,0.5540115,-0.06340769,0.25684074,-0.2042797,-0.49521866,-0.567423,0.5554878,-0.13125257,0.0646549,0.1194929,-0.09041279,0.053728934,-0.09510531,0.11915671,0.18622161,0.37256825,0.13066807,0.2274974,-0.45896137,0.1590536,-0.12626445,0.023306746,-0.3539745,-0.25577554,-0.25036356,0.21582156,0.06711165,0.17558369,-0.20457642,-0.33145216,-0.37668282,0.18211138,-0.60431063,-0.13782395,-0.229789,0.56036264,-0.3221959,-0.07368914,0.21973495,0.17732081,-0.22006546,0.11473212,0.32082465,0.24567059,0.105444916,0.15373424,-0.45184264,0.053825945,0.40442216,0.17895456,-0.42854476,0.12514232
#15,0.059914026,-0.2552628,0.24742667,-0.11280743,-0.20966695,-0.537045,-0.11207774,-0.02554471,0.074869335,-0.3279169,-0.01065234,0.4109588,-0.41707462,0.130129,0.0700015,-0.11082641,-0.47000527,0.18780994,0.090005524,-0.07396287,0.61710846,0.07085392,0.39458677,0.24797146,-0.16790286,0.3864901,-0.15027654,-0.13694572,-0.035495553,0.3838098,0.08744176,0.20347458,-0.02862274,-0.45602605,0.6844369,-0.34913293,-0.45730677,-0.38463143,-0.6918268,-0.5007504,-0.4013485,-0.22571114,0.015973248,-0.112826474,0.26032183,-0.15451841,-0.35001865,-0.44182885,0.62159663,-0.057611525,0.26594228,-0.18818666,-0.529678,-0.6043473,0.56260324,-0.12185336,0.081654124,0.13367626,-0.14803351,0.040471166,-0.09773195,0.15513496,0.16496278,0.36783263,0.13801838,0.28295964,-0.45116997,0.16378933,-0.12409384,0.021108905,-0.3392128,-0.27452078,-0.2500698,0.19318631,0.08601045,0.1971336,-0.16104878,-0.3080277,-0.36309478,0.17841539,-0.6352808,-0.14016868,-0.27935612,0.57411456,-0.3559066,-0.095765084,0.24013834,0.19798811,-0.19340377,0.13781627,0.33867815,0.2882999,0.10128285,0.14322166,-0.4860216,0.051528145,0.39175603,0.17750059,-0.4396401,0.13248622
#13,0.050304435,-0.25558284,0.2623392,-0.12106154,-0.19366352,-0.5197502,-0.10342499,-0.015949922,0.068893306,-0.32802656,-0.015585413,0.3905545,-0.41035706,0.12750769,0.070076115,-0.12659314,-0.4609177,0.18880098,0.08964812,-0.081932075,0.6221457,0.047913488,0.4012671,0.24731669,-0.15771264,0.38181233,-0.15186985,-0.16366088,-0.023872312,0.37895074,0.080842264,0.20517448,-0.036982168,-0.4331549,0.65865475,-0.35035312,-0.4502484,-0.368835,-0.6714649,-0.49373868,-0.37176463,-0.24310179,0.042515945,-0.11480862,0.24468742,-0.15422958,-0.32230797,-0.4564935,0.57968086,-0.051868144,0.27562445,-0.22183192,-0.5054461,-0.5885743,0.55655766,-0.132661,0.07510645,0.10967846,-0.13596539,0.040187024,-0.09651811,0.134292,0.17010441,0.35462862,0.14343773,0.27757323,-0.44589013,0.1542771,-0.12772855,0.014543127,-0.34406438,-0.26193702,-0.24983962,0.18852384,0.10309563,0.19119965,-0.1796441,-0.29606187,-0.37146363,0.18367769,-0.6091625,-0.14188354,-0.27452484,0.5602582,-0.33862454,-0.079193525,0.2220035,0.17385116,-0.20440546,0.12517738,0.35477272,0.27309045,0.09878783,0.14086924,-0.4756052,0.04246834,0.4041982,0.17493926,-0.4391432,0.13150527
#14,0.056665022,-0.23610166,0.23934156,-0.10558726,-0.2152135,-0.52053976,-0.11858862,-0.0022182714,0.07250081,-0.3192169,-0.030632418,0.4046227,-0.40258878,0.11836511,0.06528244,-0.114266716,-0.45419136,0.1767049,0.08791872,-0.080156535,0.60897815,0.07896863,0.38890085,0.24134609,-0.13240835,0.35711923,-0.14526525,-0.10790167,-0.058760177,0.38490194,0.06706783,0.20546079,-0.049199004,-0.45995876,0.650596,-0.35490066,-0.43739697,-0.35684916,-0.63539046,-0.47131276,-0.403378,-0.221186,0.02162172,-0.10687413,0.24921283,-0.1471636,-0.32002467,-0.404646,0.5988266,-0.03714286,0.24643163,-0.19279419,-0.49709052,-0.5900829,0.55872095,-0.13251977,0.09173486,0.13016884,-0.15641761,0.06150678,-0.08119564,0.12948085,0.1485619,0.3343852,0.14045788,0.28271744,-0.41398156,0.16165309,-0.12764063,0.032147687,-0.31382182,-0.25581798,-0.21636817,0.17123413,0.085155725,0.19867994,-0.15729453,-0.29425797,-0.33857578,0.13887835,-0.60062337,-0.11820717,-0.26497108,0.5567999,-0.3105863,-0.096585885,0.22605073,0.21056353,-0.18183778,0.12784177,0.3567112,0.2687961,0.099336214,0.12882721,-0.47062632,0.05121437,0.37422687,0.15909491,-0.4264399,0.11483788
#11,0.035641283,-0.24579394,0.27257305,-0.0950786,-0.17368464,-0.5234681,-0.09087033,-0.0031896322,0.07028423,-0.33769107,0.008794551,0.37871996,-0.4206424,0.11275824,0.0789892,-0.10449218,-0.45033035,0.18339849,0.10484977,-0.08273057,0.58337945,0.037286468,0.40595555,0.2446682,-0.15387297,0.3964338,-0.16867413,-0.18586147,0.015513108,0.35572955,0.037851494,0.19721626,-0.006313981,-0.39232334,0.65829927,-0.32964155,-0.43107787,-0.3714658,-0.6707309,-0.48011327,-0.34207213,-0.23061533,0.032493874,-0.09554906,0.2334112,-0.15681626,-0.33834714,-0.4593364,0.56021136,-0.050266195,0.25152752,-0.20255832,-0.5086048,-0.54810345,0.53799075,-0.14576831,0.06407557,0.11003584,-0.09922233,0.043929502,-0.09871919,0.12614818,0.1849005,0.35815167,0.14091331,0.23902522,-0.46980676,0.15184204,-0.12084934,0.0042597773,-0.3239836,-0.22887714,-0.2550423,0.22983198,0.108756125,0.17463961,-0.17186138,-0.3154222,-0.3836528,0.1925922,-0.5925516,-0.12041237,-0.23744822,0.54740375,-0.35217527,-0.07452345,0.21874745,0.17144415,-0.2079025,0.11687584,0.34725955,0.2644864,0.07845583,0.16240577,-0.4501181,0.055263884,0.40934974,0.14643589,-0.43865755,0.14518562
8,-0.050578147,-0.24221823,0.34460822,-0.06978869,-0.116088405,-0.5833413,-0.018955654,-0.049618535,0.10588725,-0.36926362,-0.016794724,0.42517605,-0.527856,0.13664472,0.078282915,-0.13048539,-0.51406914,0.25333068,0.0016332755,-0.09021836,0.58928627,-0.008907615,0.49867082,0.27403542,-0.21433252,0.43315995,-0.2281472,-0.1601052,-0.061783858,0.40460128,0.10389326,0.24433628,-0.088163584,-0.5183638,0.6750182,-0.3559356,-0.47883227,-0.44391453,-0.7772977,-0.5388212,-0.39982066,-0.28947577,0.10228353,-0.17667818,0.39607093,-0.15660715,-0.36374557,-0.64311177,0.720844,-0.048724562,0.31605217,-0.24634022,-0.49149895,-0.6493297,0.469169,-0.11717981,0.09562239,0.16553254,-0.12865743,0.04771318,-0.061252438,0.16210984,0.22650254,0.47252142,0.20896296,0.2377316,-0.50863886,0.21126868,-0.1291359,-0.03556326,-0.42285255,-0.3312887,-0.31675765,0.34480807,0.0837901,0.14915499,-0.27990493,-0.3259778,-0.44519192,0.1693238,-0.768399,-0.19356358,-0.23350216,0.6022731,-0.39796126,-0.08259538,0.35754502,0.188109,-0.27646863,0.073886484,0.39806837,0.24283333,0.039527148,0.04267481,-0.4464599,0.022942536,0.5202032,0.090774484,-0.54732454,0.18179195
#26,0.048946057,-0.23963167,0.24680349,-0.1072202,-0.2333031,-0.5244968,-0.110101305,0.01073204,0.095772095,-0.3330329,0.0041530905,0.4069818,-0.42162186,0.1255801,0.058797766,-0.14184956,-0.45939445,0.16165964,0.12416762,-0.088257685,0.62960273,0.06368613,0.41393012,0.27712753,-0.1197158,0.34204665,-0.13521211,-0.14018027,-0.039626416,0.34123018,0.088458955,0.20054284,-0.006810429,-0.4341711,0.6478919,-0.33140182,-0.4213573,-0.38307837,-0.6518252,-0.52194256,-0.42278,-0.19986707,0.020816155,-0.118998036,0.24078485,-0.14034304,-0.3220342,-0.39923415,0.6002881,-0.019759731,0.23728749,-0.17111123,-0.55288595,-0.56944305,0.5806615,-0.17262857,0.09515005,0.09810036,-0.15371715,-0.0017985702,-0.08666156,0.1440278,0.18617074,0.31145617,0.1119544,0.27289993,-0.44032553,0.14212053,-0.15989895,0.030842986,-0.34401938,-0.20968829,-0.23311503,0.18735744,0.11067868,0.2092216,-0.14490601,-0.29808047,-0.36631566,0.18644054,-0.55160993,-0.13065638,-0.27603233,0.58941555,-0.32939777,-0.0911972,0.22081421,0.15833779,-0.19841799,0.15913433,0.35758895,0.28531012,0.12305921,0.15679088,-0.44132698,0.050661996,0.35792267,0.16479138,-0.4266318,0.10564408
#17,0.056147587,-0.24623325,0.24860787,-0.122195646,-0.20763318,-0.527785,-0.11207871,-0.012119579,0.07917344,-0.3323011,-0.0062217666,0.39752203,-0.4297575,0.12670404,0.06537165,-0.13011765,-0.42550784,0.20210612,0.10108324,-0.07278725,0.6072736,0.046920355,0.41960168,0.2564072,-0.1344115,0.35904622,-0.14829496,-0.139654,-0.027098361,0.37195328,0.098979175,0.21426465,-0.03856244,-0.44643843,0.63456357,-0.34020603,-0.43695596,-0.37055522,-0.6565413,-0.49483573,-0.37153566,-0.21980274,0.02896721,-0.13081697,0.23741576,-0.13061108,-0.3193255,-0.44928664,0.5907031,-0.040498357,0.2586331,-0.20801638,-0.53638464,-0.56555575,0.52166355,-0.13982385,0.08821775,0.10819437,-0.15289877,0.04030858,-0.08184053,0.15046883,0.1617469,0.31675464,0.14952175,0.27930218,-0.40937233,0.12643518,-0.12343744,0.009058548,-0.3358996,-0.23677501,-0.23662122,0.19762921,0.10218512,0.20542485,-0.14378121,-0.2665793,-0.3598058,0.1759269,-0.5823735,-0.13475494,-0.27874744,0.57192755,-0.33867356,-0.097598076,0.23340051,0.16686124,-0.18352254,0.11907208,0.35784099,0.27114052,0.10243653,0.113186985,-0.45903155,0.03353851,0.41558522,0.15941668,-0.4481287,0.13331212
9,-0.046950717,-0.27818364,0.33839497,-0.064631954,-0.15507482,-0.59208554,-0.04247529,-0.04519213,0.11267594,-0.3671961,-0.02238592,0.43308383,-0.5130403,0.14824575,0.038426694,-0.1459884,-0.53972703,0.20416915,0.028931824,-0.08288531,0.64083725,0.03946787,0.47189847,0.29821002,-0.18225396,0.43147105,-0.2503553,-0.16257742,-0.06541286,0.38716668,0.07699706,0.25422174,-0.037681736,-0.49504304,0.67143816,-0.36433586,-0.50459164,-0.45343107,-0.78435254,-0.5497715,-0.4279887,-0.25213426,0.08446885,-0.17569675,0.3662885,-0.19068988,-0.39339685,-0.5835996,0.73893607,-0.03445858,0.2974056,-0.21593265,-0.5184018,-0.6400809,0.5500442,-0.14447351,0.09479698,0.1559744,-0.13360944,0.035785735,-0.08939151,0.15877071,0.22054143,0.45454314,0.17795427,0.22570227,-0.52612025,0.19982684,-0.13716392,-0.008569395,-0.41613713,-0.29924497,-0.319759,0.28571445,0.09885368,0.16317774,-0.23915413,-0.34620932,-0.43187994,0.17580074,-0.7389344,-0.18838988,-0.2504206,0.6270798,-0.416837,-0.07715596,0.3351057,0.18004102,-0.27623367,0.12574424,0.37050763,0.27779412,0.05736147,0.09100043,-0.44146454,0.040021557,0.44385982,0.15249042,-0.54812425,0.19435148
#19,0.018221064,-0.23504986,0.2659369,-0.08903096,-0.21606708,-0.5366458,-0.10546763,-0.004791093,0.08467374,-0.34321854,-0.016137814,0.39755148,-0.4132251,0.12375846,0.061819836,-0.13105837,-0.46539772,0.1805572,0.10131029,-0.07527124,0.6235271,0.06705716,0.39393678,0.24526231,-0.12660569,0.37360618,-0.17008857,-0.10367775,-0.047481276,0.35805783,0.06888232,0.201455,-0.02250755,-0.43781176,0.64834267,-0.35705146,-0.4493808,-0.3819125,-0.6437629,-0.49314305,-0.42419186,-0.2003639,0.0025166585,-0.120147996,0.25225145,-0.1762027,-0.3194651,-0.4307232,0.6226058,-0.026612505,0.24569571,-0.16927855,-0.52871686,-0.59471124,0.5801627,-0.1386468,0.08508511,0.13082784,-0.15294994,0.054892767,-0.087616,0.14176852,0.17435098,0.32656583,0.1312448,0.2666235,-0.4338192,0.15723181,-0.12894814,0.03899001,-0.3198014,-0.2516638,-0.22382341,0.18455659,0.08175527,0.20516455,-0.15223004,-0.3271574,-0.35506478,0.1782666,-0.6175748,-0.14044529,-0.25748396,0.5801089,-0.33492938,-0.085004404,0.23015861,0.1761979,-0.17444716,0.13225299,0.33753023,0.26467294,0.13086939,0.1231591,-0.45168093,0.048493803,0.37695333,0.17094825,-0.44270694,0.13145025
#25,0.048480015,-0.22446169,0.24608,-0.105902426,-0.24634404,-0.51560986,-0.13849907,-0.0013963021,0.08579903,-0.3090413,-0.024089823,0.41082478,-0.39051017,0.13065463,0.07743047,-0.13510878,-0.47476348,0.16852678,0.09903112,-0.068210475,0.6190021,0.095913745,0.40100148,0.25795534,-0.13782367,0.32258126,-0.12672901,-0.099216454,-0.06343025,0.36129278,0.09434309,0.17650026,-0.01637047,-0.4501127,0.6486381,-0.3532317,-0.43469584,-0.36600688,-0.6447864,-0.49566185,-0.45242527,-0.1722653,-0.0124905845,-0.12185868,0.2455139,-0.14948864,-0.337435,-0.37498719,0.6178014,-0.033569925,0.22949451,-0.1267946,-0.54570305,-0.616421,0.5946234,-0.1290891,0.09296155,0.12074447,-0.15241186,0.007327538,-0.101425365,0.16114514,0.15774062,0.3138708,0.09260264,0.27153745,-0.42051026,0.16287947,-0.14824057,0.04607315,-0.30363324,-0.2418415,-0.2208398,0.15465507,0.07356604,0.21261382,-0.10968843,-0.3058101,-0.3574082,0.16354875,-0.5852253,-0.14340724,-0.27351335,0.58835655,-0.3315464,-0.10568129,0.21788643,0.18467356,-0.17224026,0.14605784,0.31962296,0.28969616,0.14025068,0.14174294,-0.4377965,0.06054634,0.33677882,0.2020549,-0.42360768,0.09051149
#10,0.034691263,-0.23069479,0.2609738,-0.12572414,-0.17548989,-0.51621795,-0.09236944,-0.030451091,0.106974535,-0.3279369,0.010599988,0.40178132,-0.38320866,0.11992887,0.08500032,-0.11689932,-0.47662246,0.17764688,0.08667866,-0.0530833,0.53386104,0.028110659,0.38373524,0.27169028,-0.21157408,0.3838023,-0.17238292,-0.17575094,0.02736295,0.35838407,0.06485267,0.18902192,-0.039376482,-0.38468727,0.6373258,-0.32315353,-0.44152293,-0.38864583,-0.6927484,-0.47427154,-0.37739563,-0.21431375,0.044906996,-0.12379735,0.2652609,-0.17214334,-0.33559328,-0.47561795,0.55010265,-0.05436746,0.24504584,-0.17657022,-0.52378803,-0.56515574,0.5094932,-0.10885616,0.05293234,0.119845636,-0.0906775,-0.0019210639,-0.072527125,0.12137396,0.18904676,0.4061145,0.14611186,0.22147046,-0.48372838,0.15192072,-0.13058053,0.0014561221,-0.32039487,-0.24537861,-0.2595501,0.22248009,0.065541975,0.210496,-0.21031238,-0.3041884,-0.36616805,0.21396896,-0.6020292,-0.15021819,-0.24535151,0.5564658,-0.36077324,-0.067794114,0.21477789,0.18301298,-0.22723688,0.10257923,0.3171243,0.25564814,0.068948045,0.14837487,-0.4447152,0.05883591,0.39897123,0.15892926,-0.45843363,0.12149354
#30,0.05819597,-0.23368955,0.24965557,-0.0863386,-0.25057313,-0.5356067,-0.122235715,0.006735832,0.08270676,-0.32672682,-0.032594435,0.38957295,-0.42283857,0.14349417,0.028048955,-0.13818344,-0.4687376,0.16544712,0.11114577,-0.09343618,0.64793843,0.097300485,0.39059633,0.26500452,-0.10708176,0.33475235,-0.13191126,-0.07886872,-0.102074526,0.36823222,0.09727413,0.18870892,-0.003631386,-0.48659164,0.6307992,-0.34985915,-0.43737176,-0.36930966,-0.6044731,-0.5210448,-0.457212,-0.17963994,-0.024551393,-0.11388401,0.2352079,-0.151269,-0.30082214,-0.3607226,0.6594358,-0.003526738,0.23816802,-0.17059079,-0.5102448,-0.5766246,0.6070022,-0.16766925,0.108715385,0.12025315,-0.19805892,0.034606006,-0.07003007,0.13460688,0.14300877,0.28544554,0.1220139,0.28939143,-0.38397625,0.14363585,-0.15335047,0.07362602,-0.33072132,-0.22417144,-0.19526225,0.11992283,0.09685884,0.22063074,-0.12556235,-0.29765445,-0.32337806,0.12770522,-0.5685654,-0.11856776,-0.28432775,0.5795777,-0.31039053,-0.10874557,0.21304913,0.1936686,-0.16370787,0.18165767,0.35892853,0.27198437,0.134129,0.12706059,-0.42724088,0.042999357,0.304226,0.1669626,-0.41758633,0.10485651
7,-0.06459961,-0.23559146,0.3502882,-0.05155119,-0.14604083,-0.59598017,-0.03398806,-0.042441517,0.08721942,-0.3879986,-0.004452687,0.4118753,-0.523273,0.15001038,0.078738466,-0.107112505,-0.49645153,0.25962386,0.0018426869,-0.10746659,0.63363487,0.032134756,0.53805137,0.25456035,-0.16878355,0.43535444,-0.20957358,-0.14280424,-0.08270954,0.407244,0.1113435,0.25484276,-0.05149435,-0.5251287,0.6899767,-0.36856058,-0.4816635,-0.43199703,-0.76402843,-0.5252548,-0.41250288,-0.29149225,0.074596755,-0.1739581,0.3658238,-0.15891717,-0.3700088,-0.5953288,0.73498696,-0.03776916,0.31506416,-0.24357197,-0.5156218,-0.6714353,0.516877,-0.11920296,0.10463225,0.15168968,-0.15862797,0.06851307,-0.086530216,0.17791477,0.23260456,0.43346334,0.20309567,0.24433446,-0.47879127,0.21060026,-0.14140221,-0.016536964,-0.39506996,-0.31715837,-0.29781067,0.32304823,0.10490942,0.16341442,-0.230159,-0.3518999,-0.4418141,0.15689349,-0.7774001,-0.19912077,-0.2402744,0.62262887,-0.4059379,-0.106899254,0.34748915,0.16418052,-0.23507336,0.09486855,0.40072557,0.2793718,0.09799574,0.046605818,-0.44179255,0.035769466,0.5091993,0.10418623,-0.5379527,0.18340519
#27,0.058543008,-0.21725878,0.22724482,-0.104110315,-0.22647856,-0.489178,-0.13346106,-0.0019096003,0.08114515,-0.28598106,-0.043882668,0.3893486,-0.3830061,0.1283818,0.06737541,-0.14317393,-0.47495836,0.16419716,0.123237066,-0.050082684,0.61459464,0.08265337,0.3846173,0.25389716,-0.10585571,0.30757588,-0.11085581,-0.09870375,-0.07725574,0.34421566,0.11406505,0.18157478,-0.00969101,-0.43350342,0.6203836,-0.34200898,-0.42543337,-0.3541482,-0.60367876,-0.49129018,-0.45576978,-0.16157378,-0.00776644,-0.122102425,0.22264886,-0.14173119,-0.29614377,-0.343304,0.59970576,-0.022575803,0.23764029,-0.14649776,-0.5177854,-0.59432346,0.59396774,-0.1498101,0.09432623,0.11531362,-0.15595111,-0.0026799343,-0.08384035,0.14356557,0.15800847,0.2847305,0.08557994,0.2600959,-0.39868724,0.1484193,-0.16015302,0.06375998,-0.31334627,-0.23591739,-0.20106493,0.13667586,0.06357787,0.21540257,-0.1224084,-0.28481483,-0.32836658,0.14742869,-0.53960985,-0.1422505,-0.27825242,0.564218,-0.30311224,-0.1097129,0.205837,0.16879004,-0.17499283,0.15702483,0.3217506,0.26871744,0.13913679,0.13390528,-0.4268874,0.04836963,0.31161833,0.1927539,-0.4007528,0.07106241
#28,0.027631477,-0.24427143,0.25380835,-0.08916468,-0.2421817,-0.52808875,-0.1060799,-0.0008310006,0.09278951,-0.3265657,-0.0055996263,0.39072058,-0.43765905,0.142095,0.055998147,-0.13933666,-0.4481098,0.1830054,0.12833294,-0.07984108,0.6472349,0.07039603,0.40887645,0.26974425,-0.111187,0.34639516,-0.15341577,-0.10943249,-0.056510568,0.34193236,0.10356762,0.1957616,-0.005500709,-0.44615337,0.63320905,-0.35116392,-0.42459783,-0.3782955,-0.6275745,-0.5134394,-0.44169316,-0.18391253,-0.010368699,-0.1079907,0.23897134,-0.12862742,-0.31074378,-0.39897326,0.63634694,0.008683562,0.2413577,-0.16226195,-0.5482389,-0.5743,0.57479656,-0.15988743,0.110491514,0.10889773,-0.18566543,0.014475753,-0.097519286,0.16004282,0.16877037,0.2812716,0.11482181,0.27601776,-0.41347504,0.14101483,-0.14828596,0.040143326,-0.33573714,-0.20471942,-0.20951104,0.17527246,0.10678899,0.20720924,-0.12638599,-0.28251407,-0.35244414,0.18492174,-0.5723217,-0.12962343,-0.2640517,0.60123736,-0.3256294,-0.10437666,0.21401364,0.14818779,-0.17549235,0.15864371,0.3456961,0.28087083,0.14081623,0.11529982,-0.4302182,0.061468903,0.35646006,0.17192566,-0.4346735,0.1258514
3,-0.018890286,-0.20181063,0.33286527,-0.076056495,-0.10547264,-0.5905876,-0.015796231,-0.02366121,0.09148597,-0.3534538,0.002707105,0.3888101,-0.5104832,0.1067029,0.11452456,-0.13483895,-0.4963704,0.26599208,0.029288407,-0.093335934,0.52886736,-0.050729502,0.4628662,0.2822599,-0.2155003,0.36794382,-0.15939437,-0.13505957,-0.04287904,0.3822001,0.07956701,0.2134495,-0.13474156,-0.5353709,0.6401228,-0.2914925,-0.3867529,-0.38119358,-0.7189721,-0.5072924,-0.37021253,-0.30066884,0.053031698,-0.13252774,0.3795731,-0.1450288,-0.30852345,-0.58522004,0.67926556,0.0047635804,0.2615086,-0.2762452,-0.4389643,-0.58943814,0.43362564,-0.12452914,0.07236272,0.11249036,-0.16858925,0.024447177,-0.017233461,0.11838153,0.25357595,0.37714994,0.21918961,0.23840079,-0.46051657,0.20665886,-0.15510945,-0.011090988,-0.38799605,-0.2516726,-0.24772473,0.35203525,0.08158934,0.19986722,-0.25022787,-0.3079734,-0.40577412,0.12256637,-0.67557466,-0.18933591,-0.24758814,0.54432875,-0.39388174,-0.11729405,0.28343686,0.23236191,-0.22248767,0.10079992,0.4177592,0.22501516,0.030594217,0.052250974,-0.43639097,-0.002959798,0.5178668,0.0015027821,-0.48316687,0.12333918
2,-0.08082504,-0.13990912,0.34849328,-0.074977584,-0.062693454,-0.5987341,0.0113747,-0.05624388,0.13080569,-0.2923407,0.0056022354,0.3509611,-0.50607735,0.05850545,0.14439724,-0.14840613,-0.5363823,0.24804813,0.027503893,-0.04950989,0.42585894,-0.07274074,0.40010285,0.29613736,-0.2738363,0.33384594,-0.17729887,-0.121452145,-0.016235257,0.31039453,0.09368761,0.15921222,-0.13099776,-0.4940092,0.5505582,-0.2438026,-0.35734192,-0.37239382,-0.67597383,-0.50141144,-0.40280282,-0.2439031,0.043609202,-0.13127933,0.41062236,-0.16043606,-0.29147306,-0.58101225,0.64109766,0.04237835,0.23523313,-0.25695372,-0.40196735,-0.560546,0.39006567,-0.102623224,0.06809458,0.1150567,-0.14364283,-0.05038951,0.01663796,0.09379772,0.28697762,0.36603737,0.24598211,0.17933494,-0.47289792,0.21266112,-0.17039108,-0.019736677,-0.3847563,-0.22182037,-0.22442192,0.40428972,0.034569252,0.24340957,-0.31525302,-0.2861478,-0.38171598,0.10486439,-0.6582934,-0.20590647,-0.20557335,0.5504077,-0.40287542,-0.082092516,0.25900257,0.22555695,-0.2346949,0.09625635,0.39531144,0.1826645,0.020190442,-0.0010972649,-0.37663233,-0.004634739,0.4877852,-0.03842667,-0.4652926,0.10115053
#29,0.017753236,-0.23896839,0.27328116,-0.07507445,-0.22903822,-0.5285891,-0.11450407,-0.01293602,0.06258226,-0.3233912,-0.03130444,0.37521353,-0.42808616,0.13541195,0.06381137,-0.13951959,-0.4552962,0.17168559,0.09769607,-0.08815543,0.6352789,0.06739986,0.41595897,0.27064624,-0.11633858,0.36832798,-0.15901816,-0.10869286,-0.06479277,0.35521796,0.08338689,0.20212844,0.0031638448,-0.45028785,0.6389933,-0.36695787,-0.430649,-0.3775247,-0.6287563,-0.50268847,-0.44325975,-0.20079322,-0.009641483,-0.11142085,0.24233699,-0.17317012,-0.3189128,-0.41124335,0.64213383,-0.019390453,0.24066022,-0.16537084,-0.51963645,-0.5738291,0.58538616,-0.16692951,0.091803454,0.10928811,-0.14836875,0.048775345,-0.093410276,0.13618058,0.16458587,0.3202814,0.11980697,0.26386905,-0.4107518,0.16119336,-0.14506267,0.06252111,-0.33761594,-0.23204781,-0.22187112,0.16732457,0.084612526,0.20829853,-0.14647669,-0.3053214,-0.33799276,0.1643368,-0.5989541,-0.14208879,-0.23304102,0.58007985,-0.32197422,-0.08942947,0.21539257,0.15911722,-0.17829789,0.14835009,0.3476528,0.26577568,0.13498926,0.118362375,-0.42548496,0.049130615,0.34247735,0.1701756,-0.44025764,0.13397947
#24,0.030082958,-0.23642878,0.2878933,-0.069542445,-0.23360772,-0.5276558,-0.10205753,-0.019881308,0.08128611,-0.3493711,-0.018433766,0.3998846,-0.409167,0.10321189,0.07605117,-0.12467531,-0.47565657,0.16882148,0.09243423,-0.05534839,0.59757185,0.090644725,0.37063837,0.25423872,-0.17331108,0.36381808,-0.15485974,-0.0781296,-0.05307838,0.35490894,0.05823151,0.18385428,0.009599565,-0.44940677,0.6292543,-0.34494886,-0.44476363,-0.37763214,-0.6523393,-0.46802744,-0.42830834,-0.15352501,-0.025302866,-0.1019646,0.27761364,-0.20022832,-0.33614683,-0.40366292,0.65254223,-0.014135816,0.21546385,-0.12178785,-0.52622455,-0.61046773,0.57542574,-0.10878625,0.039914157,0.13530321,-0.122788474,0.024346013,-0.07675002,0.17152192,0.17190464,0.33731848,0.13535093,0.2445115,-0.43774778,0.18397968,-0.13637067,0.0012072915,-0.3021458,-0.22764625,-0.21967265,0.17000632,0.06322913,0.22979076,-0.13534896,-0.342851,-0.33532432,0.1779711,-0.61281407,-0.14206111,-0.24444817,0.61166656,-0.34951264,-0.089459285,0.23457357,0.18128161,-0.16714503,0.13591215,0.32204273,0.28165764,0.115110405,0.14100677,-0.40938035,0.059234843,0.32150972,0.16002066,-0.41562408,0.10656852
#31,0.050106883,-0.23911864,0.2557266,-0.10445414,-0.2417405,-0.51071995,-0.11531555,-0.02357534,0.10640953,-0.30434084,-0.024994958,0.37998685,-0.4157192,0.12513626,0.049905684,-0.15035224,-0.4600213,0.1654132,0.13790067,-0.04151276,0.5988443,0.059818294,0.36302635,0.2693084,-0.1428559,0.3157992,-0.15035647,-0.09238836,-0.05526148,0.3221675,0.1114199,0.17676984,-0.008131533,-0.43671927,0.58858156,-0.33887202,-0.42676136,-0.37519473,-0.59660983,-0.51305914,-0.4349262,-0.16674091,-0.008782177,-0.099729985,0.25879458,-0.1392216,-0.28837445,-0.37966758,0.6215659,0.009036261,0.22437887,-0.1491578,-0.53296435,-0.56395864,0.5591433,-0.1464223,0.09602296,0.10044397,-0.18060547,-0.012290789,-0.07168859,0.1450057,0.1653962,0.2804956,0.13218187,0.24751389,-0.4005118,0.1381664,-0.14218563,0.04183632,-0.32267183,-0.20853071,-0.2011331,0.17080714,0.077408515,0.22999811,-0.12132935,-0.28384438,-0.31764895,0.17664903,-0.5545602,-0.13470022,-0.27264476,0.5997321,-0.30472106,-0.11570164,0.20637238,0.16201937,-0.1669792,0.156633,0.32389802,0.25238514,0.1279441,0.112821855,-0.40599772,0.04813271,0.30772763,0.15606803,-0.41590202,0.10749325
